tree
version=v4
num_class=1
num_tree_per_iteration=1
label_index=0
max_feature_idx=31
objective=binary sigmoid:1
feature_names=MONTH DAY DAY_OF_WEEK IS_WEEKEND SCHEDULED_TIME DISTANCE DISTANCE_KM airline_cancellation_rate airline_flight_count ORIGIN_CLUSTER DEST_CLUSTER SAME_STATE AIRLINE_AS AIRLINE_B6 AIRLINE_DL AIRLINE_EV AIRLINE_F9 AIRLINE_HA AIRLINE_MQ AIRLINE_NK AIRLINE_OO AIRLINE_UA AIRLINE_US AIRLINE_VX AIRLINE_WN ORIGIN_IMPORTANCE_medium ORIGIN_IMPORTANCE_small DEST_IMPORTANCE_medium DEST_IMPORTANCE_small SEASON_2.0 SEASON_3.0 SEASON_4.0
feature_infos=[1:12] [1:31] [0:6] [0:1] [0:587] [67:4962] [0:7986.3522575899688] [0.0010714285714284999:0.067338958633463605] [5553:119630] [0:99] [0:99] [0:1] [0:1] [0:1] [0:1] [0:1] [0:1] [0:1] [0:1] [0:1] [0:1] [0:1] [0:1] [0:1] [0:1] [0:1] [0:1] [0:1] [0:1] [0:1] [0:1] [0:1]
tree_sizes=3134 3535 3539 3544 3535 3529 3547 3531 3544 3527 3531 3533 3540 3538 3534 3545 3544 3543 3548 3545 3548 3543 3537 3549 3554 3536 3537 3554 3560 3542 3528 3570 3520 3554 3522 3556 3545 3531 3552 3531 3529 3543 3527 3542 3557 3547 3538 3534 3584 3547 3529 3528 3557 3528 3554 3548 3506 3526 3530 3523 3519 3521 3534 3565 3527 3528 3561 3554 3527 3518 3521 3523 3511 3535 3559 3535 3541 3557 3574 3516 3515 3534 3530 3523 3532 3529 3546 3523 3577 3541 3563 3530 3537 3551 3513 3527 3524 3545 3544 3536 3546 3522 3526 3561 3535 3531 3558 3562 3515 3568 3520 3572 3540 3513 3568 3536 3551 3559 3549 3530 3530 3561 3560 3539 3554 3548 3566 3549 3557 3520 3545 3578 3545 3540 3509 3543 3504 3529 3536 3576 3537 3526 3505 3532 3522 3509 3568 3535 3562 3561 3558 3533 3529 3546 3541 3554 3521 3564 3548 3520 3553 3557 3539 3558 3506 3563 3561 3534 3548 3557 3544 3533 3546 3548 3506 3536 3527 3551 3494 3558 3512 3532 3566 3501 3532 3547 3514 3528 3549 3539 3573 3509 3522 3522 3539 3502 3540 3536 3495 3529 3493 3493 3489 3478 3554 3560 3563 3545 3568 3524 3479 3522 3481 3505 3573 3553 3570 3541 3575 3503 3519 3551 3555 3509 3479 3517 3522 3534 3539 3550 3559 3504 3563 3509 3572 3533 3530 3537 3509 3525 3535 3508 3538 3544 3536 3541 3499 3488 3464 3549 3463 3463 3499 3446 3482 3501 3544 3525 3524 3545 3512 3485 3571 3537 3509 3503 3479 3534 3500 3543 3497 3532 3512 3516 3491 3560 3546 3511 3484 3511 3487 3504 3523 3477 3465 3498 3517 3523 3537 3518 3510 3535 3529 3510 3558 3542 3504 3528 3481 3497 3437 3493 3488 3503 3511 3497 3450 3480 3462 3544 3517 3486 3512 3497 3506 3521 3441 3475 3496 3500 3458 3498 3454 3539 3531 3520 3453 3537 3486 3484 3472 3512 3556 3474 3473 3573 3561 3532 3504 3570 3462 3460 3477 3535 3503 3514 3497 3504 3483 3507 3479 3479 3507 3543 3516 3473 3516 3515 3484 3507 3427 3510 3514 3500 3513 3574 3488 3532 3481 3514 3507 3482 3520 3515 3533 3495 3512 3509 3443 3484 3457 3529 3518 3530 3497 3427 3517 3463 3468 3509 3533 3538 3513 3514 3470 3528 3522 3461 3468 3479 3462 3535 3459 3536 3523 3488 3502 3490 3491 3498 3520 3529 3529 3528 3452 3464 3472 3502 3481 3478 3518 3481 3504 3435 3518 3515 3492 3521 3514 3482 3484 3532 3473 3488 3461 3441 3542 3529 3564 3505 3443 3516 3499 3457 3453 3480 3549 3505 3555 3474 3498 3495 3483 3498 3567 3534 3458 3521 3521 3527 3491 3456 3491 3512 3561 3506 3484 3486 3483 3492 3470 3446 3493 3494 3447 3471 3502 3498 3481 3501 3526 3459 3500 3447 3492 3466 3545 3481 3530 3527 3453 3497 3458 3493 3490 3452 3502 3467 3456 3469 3484 3453 3483 3443 3512 3497 3476 3514 3455 3492 3511 3503 3468 3469 3509 3496 3479 3527 3464 3473 3520 3515 3554 3542 3476 3496 3502 3485 3535 3443 3475 3479 3538 3452 3471 3455 3444 3459 3489 3441 3496 3474 3468 3478 3484 3443 3480 3460 3472 3522 3483 3522 3496 3517 3516 3504 3444 3506 3453 3517 3495 3472 3497 3507 3469 3492 3503 3509 3487 3495 3471 3497 3474 3467 3500 3493 3472 3469 3466 3492 3450 3521 3510 3463 3457 3486 3503 3486 3517 3507 3507 3485 3480 3520 3482 3487 3512 3487 3525 3510 3378 3397 3457 3514 3481 3510 3510 3498 3497 3533 3492 3517 3513 3446 3465 3451 3474 3484 3496 3461 3483 3485 3505 3494 3506 3452 3483 3449 3506 3490 3495 3476 3494 3466 3478 3467 3488 3463 3486 3440 3458 3533 3483 3513 3500 3492 3438 3455 3490 3473 3495 3478 3506 3517 3455 3525 3530 3521 3507 3494 3487 3470 3476 3440 3504 3492 3491 3492 3503 3473 3515 3518 3514 3499 3509 3465 3491 3518 3463 3500 3473 3530 3482 3470 3497 3501 3460 3463 3489 3479 3497 3476 3508 3462 3479 3497 3529 3498 3480 3511 3489 3496 3452 3483 3473 3456 3459 3480 3482 3530 3513 3517 3526 3474 3523 3481 3499 3508 3528 3461 3486 3491 3509 3493 3482 3525 3481 3480 3483 3441 3504 3472 3493 3520 3451 3482 3492 3443 3451 3479 3504 3469 3530 3498 3511 3437 3474 3497 3465 3493 3486 3504 3444 3485 3482 3459 3468 3509 3438 3493 3446 3512 3519 3498 3453 3482 3451 3478 3513 3487 3441 3504 3469 3529 3439 3476 3500 3495 3459 3505 3490 3500 3468 3480 3496 3510 3469 3476 3498 3469 3453 3458 3469 3492 3461 3484 3462 3433 3476 3465 3468 3456 3484 3506 3458 3433 3467 3497 3486 3454 3460 3457 3484 3477 3472 3413 3415 3443 3430 3496 3464 3470 3481 3485 3463 3497 3473 3456 3490 3447 3500 3472 3489 3415 3502 3438 3402 3418 3469 3485 3484 3477 3394 3490 3470 3424 3445 3419 3422 3462 3485 3474 3472 3484 3478 3443 3477 3463 3435 3393 3454 3444 3449 3458 3463 3508 3501 3529 3493 3494 3473 3494 3475 3491 3467 3476 3425 3400 3502 3499 3443 3462 3445 3497 3488 3491 3486 3486 3505 3483 3412 3482 3413 3409 3493 3437 3515 3454 3501 3420 3456 3514 3491 3516 3515 3482 3449 3490 3485 3452 3459 3444 3458 3431 3451 3497 3448 3451 3489 3428 3496 3500 3507 3453 3500 3483 3522 3486 3487 3485 3504 3498 3472 3500 3452 3456 3458 3470 3456 3506 3454 3499 3421 3471 3456 3458 3432 3492 3483 3474 3477 3533 3511 3471 3453 3502 3477 3467 3464 3500 3487 3417 3462 3497 3424 3493 3499 3453 3486 3427 3485 3427 3481 3484 3423 3470 3501 3476 3455 3467 3495 3525 3518 3521 3480 3456 3489 3493 3456 3478 3424 3454 3449 3465 3435 3546 3520 3506 3476 3536

Tree=0
num_leaves=31
num_cat=0
split_feature=31 30 0 0 0 0 0 0 0 0 0 0 1 0 0 18 8 2 1 9 1 1 10 18 0 0 1 6 9 3
split_gain=44523.9 43175 31795.4 62892.1 29956.5 19729.3 35254.9 22408.5 14086.2 15974.8 28461.7 21017.3 8974.69 8045.61 20368.6 3916.82 3742.64 3010.49 4944.55 2971.15 2764.23 5558.23 2594.76 2471.92 2280.79 11492.1 2076.1 2033.88 1765.41 1662.54
threshold=1.0000000180025095e-35 1.0000000180025095e-35 11.999879362341661 5.0000355452233078 4.9999030950008461 4.0000184706345712 3.9845611652909478 1.0000746406245169 1.9884465130194606 3.0000154969513226 2.9999939464349277 2.0000063630605562 5.9815101229973537 6.9935861997635484 6.0001082346304884 1.0000000180025095e-35 46044.500000000007 3.5000000000000004 20.000177288426944 50.500000000000007 25.000096342269234 27.999814027457059 50.500000000000007 1.0000000180025095e-35 7.9839283325929111 7.0001480689942754 25.000096342269234 132.90281962141276 93.500000000000014 1.0000000180025095e-35
decision_type=2 2 2 2 2 2 2 2 2 2 2 2 2 2 2 2 2 2 2 2 2 2 2 2 2 2 2 2 2 2
left_child=1 2 3 4 5 6 7 20 -9 10 11 17 -12 14 19 27 24 18 -10 -3 23 -22 -19 -1 25 -15 -4 -2 -6 -21
right_child=15 13 26 -5 28 -7 -8 8 9 -11 12 -13 -14 16 -16 -17 -18 22 -20 29 21 -23 -24 -25 -26 -27 -28 -29 -30 -31
leaf_value=-0.067106878464342851 -0.010460943969086393 -0.070462600261145314 -0.080388990825688081 0.10000000000000001 -0.085757213480241692 0.10000000000000001 -0.084627890173410408 0.10000000000000001 -0.057273320287018918 0.10000000000000001 0.018412503292650803 0.10000000000000001 -0.086502212466464584 -0.064583029063823572 0.10000000000000001 0.0037588652482269504 -0.079171322960543286 -0.013396561944279788 0.030463096960926195 -0.0058894099683716875 0.054337640210137733 -0.095495023572551074 0.050358713260819254 0.025558312655086853 -0.065414141414141411 0.10000000000000001 -0.025016648168701444 -0.087627587362775497 -0.017417556897352533 -0.079884583676834306
leaf_weight=6720.25 905.75 5361 6812.5 25188.25 7737.25 6998 8304 8102.25 3832.5 6397 2847.25 9755.5 7175.25 3423.5 3174.75 1410 11633 2530.5 2764 4584.5 1760.75 954.5 4321 806 3712.5 1536.75 2252.5 14916.25 1076.5 909.75
leaf_count=26881 3623 21444 27250 100753 30949 27992 33216 32409 15330 25588 11389 39022 28701 13694 12699 5640 46532 10122 11056 18338 7043 3818 17284 3224 14850 6147 9010 59665 4306 3639
internal_value=4.1095e-05 0.0087485 0.0232893 0.030888 0.0096799 0.0201563 0.011725 0.025528 0.0399291 0.0276456 0.0137152 0.0441291 -0.0566974 -0.0405183 -0.0114006 -0.0760939 -0.0606368 0.00359905 -0.0205109 -0.043981 -0.0415808 0.00166651 0.0268116 -0.0571832 -0.0357758 -0.0135931 -0.0666299 -0.0832101 -0.0774103 -0.0181417
internal_weight=167904 150672 116336 107271 82082.5 73268.8 66270.8 57966.8 47725.2 39623 33226 23203.5 10022.5 34335.8 14030 17232 20305.8 13448 6596.5 10855.2 10241.5 2715.25 6851.5 7526.25 8672.75 4960.25 9065 15822 8813.75 5494.25
internal_count=671614 602686 465343 429083 328330 293075 265083 231867 190901 158492 132904 92814 40090 137343 56120 68928 81223 53792 26386 43421 40966 10861 27406 30105 34691 19841 36260 63288 35255 21977
is_linear=0
shrinkage=0.05


Tree=1
num_leaves=31
num_cat=0
split_feature=7 29 0 0 31 30 0 0 0 31 29 30 0 0 1 1 0 0 0 10 0 0 0 0 0 9 7 0 0 1
split_gain=45024.4 25866.5 60318.5 33965.3 13169.9 22439.2 44969.3 12477 11953.3 10687.1 12529.1 11294.1 8411.4 8920.47 4758.67 4425.83 4307.97 11594.3 3292.64 3071.56 2921.62 3040.26 4055.81 2867.7 3900.39 2748.67 1973.29 1765.22 2217.29 1733.64
threshold=0.022434421763187908 1.0000000180025095e-35 5.9999953649961535 2.0000063630605562 1.0000000180025095e-35 1.0000000180025095e-35 11.999879362341661 1.0000746406245169 1.9884465130194606 1.0000000180025095e-35 1.0000000180025095e-35 1.0000000180025095e-35 11.999879362341661 1.0000746406245169 25.000096342269234 27.999814027457059 6.9935861997635484 6.0001082346304884 7.9839283325929111 50.500000000000007 7.0001480689942754 6.9935861997635484 6.0001082346304884 2.0000063630605562 1.9884465130194606 86.500000000000014 0.057179214985175163 9.0000484039661206 10.984017413865251 5.9815101229973537
decision_type=2 2 2 2 2 2 2 2 2 2 2 2 2 2 2 2 2 2 2 2 2 2 2 2 2 2 2 2 2 2
left_child=1 2 3 7 5 6 -4 14 -9 10 11 12 13 -2 -1 -16 17 -7 20 -10 21 22 -13 24 -15 -12 -26 -11 -29 -3
right_child=9 29 4 -5 -6 16 -8 8 19 27 25 18 -14 23 15 -17 -18 -19 -20 -21 -22 -23 -24 -25 26 -27 -28 28 -30 -31
leaf_value=-0.079578504374460401 -0.006526773828209877 -0.037440328132347066 0.095241872246060344 0.095267441113479984 -0.084596269534981811 -0.053827849410864687 -0.07539800497249248 0.095241872246060344 -0.036274003904226158 -0.075304385350226113 -0.032142492727459261 -0.0051087877514721571 -0.025399524381474865 0.095241872246060344 0.057306071641183759 -0.092262147735555397 -0.072697335761387968 0.095241872246060344 -0.048512297057385023 0.020392939239533642 0.095241872246060344 -0.04298659017450495 0.095241872246060344 0.095256585991248782 -0.012058258867225675 0.03477440525533728 0.062139217643944269 0.072487885316001519 -0.036224761065775546 -0.072883578240516542
leaf_weight=5068.0421425402164 2924.8352329283953 4268.4778438210487 8802.9743418097496 16744.387504681945 12808.075604736805 8172.3227365016937 6877.3368698954582 4479.2924965322018 4110.5288160443306 1780.5656164586544 5635.8117911815643 2674.7890852093697 2176.3163093626499 3602.7357030063868 1499.3929516673088 738.06606195867062 15114.071972101927 1552.116495847702 2064.2908922731876 5717.5542252659798 1174.3117896765471 1923.4936128258705 1614.7098828107119 19760.081412255764 1968.2523859292269 2108.7883480787277 1645.0303055495024 612.51862905919552 2002.2132243663073 17995.047060236335
leaf_count=20295 11710 17092 35300 67145 51326 32716 27544 17962 16448 7132 22582 10705 8716 14447 6002 2959 60546 6224 8266 22884 4709 7702 6475 79238 7877 8447 6583 2451 8019 72112
internal_value=3.96109e-05 -0.017745 -0.00600585 0.0418128 -0.0404011 -0.0264309 0.0203997 0.000399306 0.0275458 0.0377992 0.0444631 0.0553511 0.069505 0.0764125 -0.0527655 0.00796831 -0.0559947 -0.0300349 0.00731504 -0.00330762 0.0229153 0.00924492 0.0326665 0.0854051 0.0584281 -0.0139216 0.0217219 -0.0369062 -0.0107581 -0.0660882
internal_weight=167616 113948 91684.2 38357.3 53326.9 40518.8 15680.3 21612.9 14307.4 53668.7 49273.4 41528.8 32077.3 29900.9 7305.5 2237.46 24838.5 9724.44 9451.6 9828.08 7387.3 6212.99 4289.5 26976.1 7216.02 7744.6 3613.28 4395.3 2614.73 22263.5
internal_count=671614 456555 367351 153695 213656 162330 62844 86550 57294 215059 197457 166428 128571 119855 29256 8961 99486 38940 37857 39332 29591 24882 17180 108145 28907 31029 14460 17602 10470 89204
is_linear=0
shrinkage=0.05


Tree=2
num_leaves=31
num_cat=0
split_feature=7 31 29 30 31 29 30 7 7 3 9 2 9 1 1 1 3 10 1 6 3 7 10 1 1 1 2 1 2 10
split_gain=40811.1 23421.4 33376.3 51766 9687.62 11383.8 10272.7 6689.4 3818.96 2904.6 2837.57 2654.49 2482.71 2068.98 2239.83 1585.37 1584.21 1632.66 1472.45 1371.4 1316.25 1312.78 1292.56 1234.84 1181.34 1622.16 1176.46 1139.74 1299.21 1078.14
threshold=0.022434421763187908 1.0000000180025095e-35 1.0000000180025095e-35 1.0000000180025095e-35 1.0000000180025095e-35 1.0000000180025095e-35 1.0000000180025095e-35 0.007219421939650761 0.013662615350271337 1.0000000180025095e-35 50.500000000000007 3.5000000000000004 86.500000000000014 23.999988151592234 7.0001007139446543 5.9815101229973537 1.0000000180025095e-35 50.500000000000007 27.999814027457059 132.90281962141276 1.0000000180025095e-35 0.057179214985175163 50.500000000000007 11.000131192333262 23.999988151592234 6.00005963430036 5.5000000000000009 28.848974397234436 5.5000000000000009 60.500000000000007
decision_type=2 2 2 2 2 2 2 2 2 2 2 2 2 2 2 2 2 2 2 2 2 2 2 2 2 2 2 2 2 2
left_child=1 2 3 7 5 6 26 22 -5 13 16 24 20 14 -8 -4 18 -18 23 -3 -7 -6 -1 -9 25 -10 -2 28 -12 -24
right_child=4 19 15 8 21 12 9 10 11 -11 27 -13 -14 -15 -16 -17 17 -19 -20 -21 -22 -23 29 -25 -26 -27 -28 -29 -30 -31
leaf_value=-0.027082050144207327 0.068680737551237228 -0.0083269485409661285 -0.035598340081420446 -0.08864477826071987 -0.053961539062167101 -0.019126552745896534 -0.037795058224444469 0.016022458403072752 -0.06024111569048464 -0.060623379649916057 0.057205566244452999 -0.068200244835292675 0.033046033383780982 -0.04167442536717824 0.041289921271385012 -0.069516017707430336 -0.04559048927238827 0.024573260433907236 -0.022399288178483443 -0.084518879094202304 -0.081654663976759675 0.0046232932883175171 0.042118122903592653 0.047377393457259859 -0.060189793193073618 -0.010737331504513942 0.02620130620621678 -0.013158704273725869 0.012100921902165374 -0.0084116184330997913
leaf_weight=4077.0708882212639 30186.881794437766 620.84647843241692 4264.9568946510553 5860.874879822135 2976.7371087968349 4599.998650893569 1059.1587629169226 4497.7585569769144 2097.585013911128 1359.8676253855228 23510.30399467051 6540.6939567476511 2108.1394979804754 1217.8923242837191 5786.897970572114 17925.069159939885 1383.0613836497068 2070.0327908992767 1085.7288394123316 12119.160911098123 1030.1147594004869 1408.7749385088682 1773.0374556034803 10402.434386372566 2412.691359847784 7840.1735279709101 1722.9282294809818 645.15983271598816 1712.8486942499876 2609.1025396287441
leaf_count=16398 121643 2489 17092 23556 11962 18448 4252 18120 8428 5457 94746 26293 8447 4888 23260 72112 5558 8324 4371 48837 4134 5640 7134 41907 9696 31513 6928 2599 6889 10493
internal_value=4.00955e-05 -0.0169317 -0.00885137 0.00645065 0.036058 0.0424211 0.0528411 0.0339964 -0.0533846 0.00697327 0.041617 -0.0424453 -0.0132369 0.0183725 0.0290546 -0.062997 0.0271824 -0.0035293 0.0338164 -0.0808059 -0.030567 -0.0351421 -0.00681922 0.0379126 -0.0288057 -0.0211862 0.0663871 0.0524641 0.0541426 0.012033
internal_weight=166906 113449 100709 78518.6 53457.4 49071.9 41333.6 53766.5 24752 9423.82 45307.3 18891.1 7738.25 8063.95 6846.06 22190 19439 3453.09 15985.9 12740 5630.11 4385.51 8459.21 14900.2 12350.4 9937.76 31909.8 25868.3 25223.2 4382.14
internal_count=671614 456555 405229 316025 215059 197457 166428 216539 99486 37857 182514 75930 31029 32400 27512 89204 78280 13882 64398 51326 22582 17602 34025 60027 49637 39941 128571 104234 101635 17627
is_linear=0
shrinkage=0.05


Tree=3
num_leaves=31
num_cat=0
split_feature=7 0 29 0 30 0 0 0 31 29 30 0 0 31 30 0 1 1 0 10 0 0 0 0 0 2 9 1 7 0
split_gain=36994.4 22060.5 47129.6 21337.3 22852.9 13503.2 10806.1 10328.5 8781.74 10338.8 9365.6 7702.23 8217.35 7536.03 16059.2 35990.7 4308.79 3887.34 2895.41 2685.26 2677.07 3611.84 2619.42 2689.77 3632.7 2448.15 2244.18 2115.35 1784.05 1676.05
threshold=0.022434421763187908 6.9935861997635484 1.0000000180025095e-35 1.0000746406245169 1.0000000180025095e-35 2.0000063630605562 1.9884465130194606 6.0001082346304884 1.0000000180025095e-35 1.0000000180025095e-35 1.0000000180025095e-35 11.999879362341661 1.0000746406245169 1.0000000180025095e-35 1.0000000180025095e-35 11.999879362341661 25.000096342269234 27.999814027457059 7.9839283325929111 50.500000000000007 2.0000063630605562 1.9884465130194606 7.0001480689942754 6.9935861997635484 6.0001082346304884 3.5000000000000004 86.500000000000014 20.000177288426944 0.057179214985175163 3.9845611652909478
decision_type=2 2 2 2 2 2 2 2 2 2 2 2 2 2 2 2 2 2 2 2 2 2 2 2 2 2 2 2 2 2
left_child=1 2 3 16 5 6 -5 -6 9 10 11 12 -2 14 15 -3 -1 -18 22 -8 21 -14 23 24 -12 27 -11 -21 -23 -4
right_child=8 13 29 4 7 -7 19 -9 -10 26 18 -13 20 -15 -16 -17 17 -19 -20 25 -22 28 -24 -25 -26 -27 -28 -29 -30 -31
leaf_value=-0.076970055709885632 -0.0094292811736159197 0.089417052198200023 -0.042524370651810972 0.089502707699192885 -0.048808792669872522 0.089478775796919041 -0.035416710544672304 0.092236827801532931 -0.03348067891292144 -0.029092197131788924 -0.0052000395182770984 -0.027306111446588177 0.088500051814259184 -0.077446193797618093 -0.066857475908200403 -0.072801832391675078 0.052855839645598847 -0.087796446407887668 -0.045793796268187748 -0.064819981038966593 0.088467985860489762 -0.014641709766519779 0.090160683262443225 -0.040806217861814847 0.090083315262217245 0.04473311424221256 0.031421061427721074 0.031106508228811742 0.055998070642739199 -0.070928063986313142
leaf_weight=5052.7649298757315 2925.1472519189119 6819.5353211313486 8359.5984396338463 4427.8822216391563 8125.7398577928543 18431.04537960887 4107.8534026294947 1544.6933625936508 4373.4399441033602 5620.2145902365446 2672.7616447806358 2178.2168268710375 3550.651514545083 12630.831399917603 14977.456233754754 6857.4799528867006 1491.9562377035618 732.39622601866722 2057.6672544032335 1284.8065821230412 19472.204547643661 1967.2375234514475 1162.8046805113554 1918.685731574893 1598.6120327860117 3383.976344332099 2106.3479569107294 1039.8307896256447 1638.0763112604618 13713.999969869852
leaf_count=20295 11710 27671 33742 17962 32716 74774 16448 6224 17602 22582 10705 8716 14447 51326 60546 27544 6002 2959 8266 5140 79238 7877 4709 7702 6475 13576 8447 4168 6583 55462
internal_value=3.72666e-05 -0.0161552 0.000610483 0.0276478 0.0412394 0.0612219 0.0246597 -0.0262791 0.0343984 0.0404732 0.0504396 0.063431 0.0701188 -0.0452708 -0.031088 0.00808259 -0.0514427 0.00654429 0.00663367 -0.00458887 0.0788573 0.0527054 0.0213053 0.00837076 0.0304609 0.0175945 -0.0125956 -0.0219112 0.0174535 -0.0601712
internal_weight=166224 112982 71696.5 49622.9 42345.8 32675.4 14244.3 9670.43 53242.1 48868.6 41142.1 31731.5 29553.3 41285.3 28654.5 13677 7277.12 2224.35 9410.53 9816.47 26628.2 7155.97 7352.86 6190.06 4271.37 5708.61 7726.56 2324.64 3605.31 22073.6
internal_count=671614 456555 289468 200264 171008 132068 57294 38940 215059 197457 166428 128571 119855 167087 115761 55215 29256 8961 37857 39332 108145 28907 29591 24882 17180 22884 31029 9308 14460 89204
is_linear=0
shrinkage=0.05


Tree=4
num_leaves=31
num_cat=0
split_feature=7 0 29 0 30 0 0 0 31 29 30 0 0 31 30 0 1 1 0 0 0 10 0 0 0 2 9 1 7 0
split_gain=33658.9 20117 42862.6 19418 20840.4 12469.4 9903.31 9389.98 7990.75 9448.51 8586.58 7055.86 7571.18 6912.24 14609.5 32819 3913.04 3538.22 2624.87 2503.87 3344.02 2426.75 2400.3 2437.3 3330.14 2215.82 2028.87 1911.32 1617.81 1596.47
threshold=0.022434421763187908 6.9935861997635484 1.0000000180025095e-35 1.0000746406245169 1.0000000180025095e-35 2.0000063630605562 1.9884465130194606 6.0001082346304884 1.0000000180025095e-35 1.0000000180025095e-35 1.0000000180025095e-35 11.999879362341661 1.0000746406245169 1.0000000180025095e-35 1.0000000180025095e-35 11.999879362341661 25.000096342269234 27.999814027457059 7.9839283325929111 2.0000063630605562 1.9884465130194606 50.500000000000007 7.0001480689942754 6.9935861997635484 6.0001082346304884 3.5000000000000004 86.500000000000014 20.000177288426944 0.057179214985175163 9.0000484039661206
decision_type=2 2 2 2 2 2 2 2 2 2 2 2 2 2 2 2 2 2 2 2 2 2 2 2 2 2 2 2 2 2
left_child=1 2 3 16 5 6 -5 -6 9 10 11 12 -2 14 15 -3 -1 -18 22 20 -14 -8 23 24 -12 27 -11 -23 -22 -10
right_child=8 13 -4 4 7 -7 21 -9 29 26 18 -13 19 -15 -16 -17 17 -19 -20 -21 28 25 -24 -25 -26 -27 -28 -29 -30 -31
leaf_value=-0.073589896538650945 -0.0089569306103816863 0.086046476724413623 -0.057561413854371996 0.086121710593766138 -0.046574473716673698 0.086100833969724677 -0.033678471833043622 0.088516424903112567 -0.068638187003196321 -0.027688610279638655 -0.0049404865659288524 -0.025955637524024178 0.085239374999877549 -0.074413398341039078 -0.064024749746608975 -0.069572877408472608 0.050451210603915768 -0.084316655749827385 -0.043652667171072884 0.085211177670096283 -0.013905529327536179 -0.061645388630134836 0.086700194472327963 -0.038871712777652889 0.086632108741399469 0.042622060738596722 0.029890164692496786 0.029599700184374824 0.053439383574163349 -0.0069955100205297306
leaf_weight=5021.3652723878622 2925.4285929501057 6734.4343046993017 21924.647973537445 4372.982399314642 8090.6565618216991 18202.082247167826 4103.9684167206287 1529.5052567869425 1761.6135887056589 5610.1131521463394 2672.524892449379 2177.0005683749914 3503.3243171721697 12491.797950893641 14861.01697935164 6817.9137234538794 1485.084343329072 724.68064922094345 2050.8344744741917 19212.065645411611 1967.8013942837715 1283.4465052485466 1149.0923817157745 1913.5900543928146 1579.6483634263277 3374.2448536753654 2103.5861115902662 1038.1679059863091 1630.8603810071945 2601.4971213787794
leaf_count=20295 11710 27671 89204 17962 32716 74774 16448 6224 7132 22582 10705 8716 14447 51326 60546 27544 6002 2959 8266 79238 7877 5140 4709 7702 6475 13576 8447 4168 6583 10470
internal_value=3.98215e-05 -0.0154745 0.000588755 0.026488 0.039519 0.0587195 0.0235537 -0.0250964 0.0329286 0.0387597 0.0483581 0.0608847 0.0673504 -0.043415 -0.0297867 0.00775751 -0.0491901 0.00625481 0.00633827 0.0758337 0.0504662 -0.00436612 0.020354 0.00798931 0.029078 0.016754 -0.0119864 -0.0208429 0.0166142 -0.0318838
internal_weight=164915 112056 71150.8 49226.2 41995.1 32374.9 14172.8 9620.16 52859 48495.9 40782.2 31416.5 29239.5 40905.2 28413.4 13552.3 7231.13 2209.76 9365.69 26314.1 7101.99 9799.83 7314.86 6165.76 4252.17 5695.86 7713.7 2321.61 3598.66 4363.11
internal_count=671614 456555 289468 200264 171008 132068 57294 38940 215059 197457 166428 128571 119855 167087 115761 55215 29256 8961 37857 108145 28907 39332 29591 24882 17180 22884 31029 9308 14460 17602
is_linear=0
shrinkage=0.05


Tree=5
num_leaves=31
num_cat=0
split_feature=7 0 29 0 30 0 0 0 31 29 30 0 0 31 30 0 1 1 3 0 0 10 0 2 9 1 0 0 1 1
split_gain=30701.8 18439 38947.5 18022.2 18922.5 11480.5 9119.86 8493.63 7159.2 8747.47 7757.39 6383.41 7044.18 6325.66 13294 30015.9 3577.26 3178.07 2446.3 2350.77 3080.5 2138.76 1942.94 1898.6 1781.66 1686.33 1572.18 7626.59 4440.5 1558.14
threshold=0.022434421763187908 6.9935861997635484 1.0000000180025095e-35 1.0000746406245169 1.0000000180025095e-35 2.0000063630605562 1.9884465130194606 6.0001082346304884 1.0000000180025095e-35 1.0000000180025095e-35 1.0000000180025095e-35 11.999879362341661 1.0000746406245169 1.0000000180025095e-35 1.0000000180025095e-35 11.999879362341661 25.000096342269234 27.999814027457059 1.0000000180025095e-35 2.0000063630605562 1.9884465130194606 50.500000000000007 7.9839283325929111 3.5000000000000004 93.500000000000014 20.000177288426944 3.9845611652909478 3.0000154969513226 4.9999731916847017 15.000040777793913
decision_type=2 2 2 2 2 2 2 2 2 2 2 2 2 2 2 2 2 2 2 2 2 2 2 2 2 2 2 2 2 2
left_child=1 2 3 16 5 6 -5 -6 9 10 11 12 -2 14 15 -3 -1 -18 22 20 -14 29 -12 25 -11 -23 27 28 -4 -8
right_child=8 13 26 4 7 -7 21 -9 -10 24 18 -13 19 -15 -16 -17 17 -19 -20 -21 -22 23 -24 -25 -26 -27 -28 -29 -30 -31
leaf_value=-0.070724281850215662 -0.0085244243551534319 0.083077748463785919 0.019351063340674001 0.083141312248757093 -0.044040274515544174 0.08312254561159417 -0.068547725975977594 0.08526330247312619 -0.030000127348726209 -0.025951684813879151 0.029117503537533868 -0.024212194968174602 0.082360715139274357 -0.071527644471398186 -0.06135883953731746 -0.066771217569461472 0.0471395021892397 -0.080956644129236199 -0.055632892096587117 0.082336178515361944 0.016028633904658751 -0.057731385022840455 -0.033775816533703325 0.039791399344364292 0.028464044665059526 0.02823942717283591 -0.065449881759781531 0.10651725997107678 -0.074112265858713985 -0.005727402860974019
leaf_weight=5021.1705929487944 2940.8151457607746 6625.1710181087255 1625.0066178888083 4326.7212539613247 8041.6875687539577 17917.802548870444 1686.2338613271713 1508.2183620035648 4321.0570204555988 5678.9551192224026 6412.4906149953604 2165.6214617341757 3419.9541792571545 12366.388925537467 14742.743478029966 6743.1747230887413 1493.660479709506 716.46728627383709 1354.49753446877 18844.251466467977 3585.1594740152359 1271.2195491790771 1518.8274870365858 3351.205192387104 2046.2370882630348 1034.6498226821423 13521.715616971254 824.46940156817436 5830.8540032655001 2380.5628217458725
leaf_count=20471 11771 27654 6539 18053 32688 74772 6776 6220 17496 22906 26128 8678 14338 51496 60639 27461 6071 2966 5495 79017 14441 5106 6136 13533 8231 4162 55628 3311 23938 9547
internal_value=5.15978e-05 -0.0148255 0.000608325 0.0254522 0.0381397 0.056589 0.0227524 -0.0236193 0.031642 0.0371949 0.0465502 0.0585737 0.0648009 -0.0417265 -0.0286166 0.0074919 -0.0473927 0.00561399 0.00646809 0.0731429 0.0484125 -0.00411813 0.0170736 0.0157639 -0.0115381 -0.019156 -0.0549429 -0.037785 -0.0537419 -0.0317749
internal_weight=163317 111029 70551.6 48749.6 41518.3 31968.4 14050.6 9549.91 52287.9 47966.8 40241.6 30955.8 28790.2 40477.5 28111.1 13368.3 7231.3 2210.13 9285.82 25849.4 7005.11 9723.87 7931.32 5657.07 7725.19 2305.87 21802 8280.33 7455.86 4066.8
internal_count=671668 457031 289781 200365 170857 131949 57177 38908 214637 197141 166004 128245 119567 167250 115754 55115 29508 9037 37759 107796 28779 39124 32264 22801 31137 9268 89416 33788 30477 16323
is_linear=0
shrinkage=0.05


Tree=6
num_leaves=31
num_cat=0
split_feature=7 0 29 0 30 0 0 31 29 30 0 0 0 31 30 0 1 0 0 3 1 0 0 0 0 2 1 7 7 9
split_gain=28076 16479.9 34056.1 15165.2 17967.1 9882.04 7954.8 7748.5 9178.69 7640.58 7500.95 8016.49 7087.65 5209.46 11805.2 25537.2 3330.42 2854.16 3497.55 2722.73 2515.11 2114.69 2031.65 2568.99 2299.14 1760.54 3389.22 1719.92 1667.18 1603.93
threshold=0.02113480845658464 6.9935861997635484 1.0000000180025095e-35 1.0000746406245169 1.0000000180025095e-35 2.0000063630605562 1.9884465130194606 1.0000000180025095e-35 1.0000000180025095e-35 1.0000000180025095e-35 11.999879362341661 2.0000063630605562 6.0001082346304884 1.0000000180025095e-35 1.0000000180025095e-35 11.999879362341661 24.00010047116373 1.0000746406245169 1.9884465130194606 1.0000000180025095e-35 27.999814027457059 7.9839283325929111 7.0001480689942754 6.9935861997635484 6.0001082346304884 3.5000000000000004 20.000177288426944 0.038336000581793504 0.057179214985175163 50.500000000000007
decision_type=2 2 2 2 2 2 2 2 2 2 2 2 2 2 2 2 2 2 2 2 2 2 2 2 2 2 2 2 2 2
left_child=1 2 3 16 5 6 -5 8 9 10 11 17 29 14 15 -3 -1 -2 -19 21 -18 22 23 24 -11 26 -8 -10 -20 -6
right_child=7 13 -4 4 12 -7 25 -9 27 19 -12 -13 -14 -15 -16 -17 20 18 28 -21 -22 -23 -24 -25 -26 -27 -28 -29 -30 -31
leaf_value=-0.069920255298867015 -0.013016541993030617 0.080453677625504538 -0.053847090416654697 0.080496971672634199 -0.066559370017494249 0.080487013871574309 -0.063423519953023866 -0.031848277127721182 -0.040232841214663986 0.0081951702735278704 -0.02947344347588653 0.079832420993278058 0.082384894434896661 -0.069867330411477815 -0.061319634044619681 -0.06347096888752897 0.035969928009783624 0.079829601376851689 -0.015751265743834793 -0.054021905445341002 -0.078411983974461003 -0.032821601184731319 0.086743982174692633 -0.034822012092006839 0.082503641724956028 0.018031584632916379 0.024202832770019125 0.0050236275824343223 0.050296188501896925 -0.020310063527452848
leaf_weight=4512.4673801660538 3224.9433834254742 5957.0257958173752 20564.385254532099 4117.6739775687456 4067.5140368044376 16373.948762044311 2547.7046232372522 4945.0422780364752 3524.6147704571486 2686.4785159230232 2453.769361153245 20245.581933349371 1271.0438908338547 11540.589742183685 13794.683919385076 6386.1885783076286 1687.2326496243477 3484.4275229424238 2346.7562013715506 1600.0539222657681 672.01880323886871 1743.3538559377193 1241.3791199475527 1739.4042478203773 1699.4453290402889 4820.4891854971647 1946.6601066291332 5191.6751475036144 1611.5921836495399 3477.1773346811533
leaf_count=18599 12942 25329 85240 17502 16702 69605 10281 20189 14356 10780 9872 86509 5329 48803 57398 26267 6910 14889 9407 6545 2828 7088 5172 7021 7120 19500 7822 20957 6555 14151
internal_value=5.4004e-05 -0.0155003 -0.000449391 0.0236877 0.0358644 0.0544111 0.0226251 0.0279999 0.0336058 0.0428768 0.0546709 0.0613499 -0.0268427 -0.0418878 -0.029534 0.00598929 -0.0447512 0.0262732 0.0432974 0.00613267 0.00338892 0.016698 0.0284169 0.0165962 0.036988 -0.0029575 -0.0254696 -0.0132768 0.0111391 -0.0452441
internal_weight=161475 103737 66058.3 45493.9 38622.2 29806.5 13432.5 57738.5 52793.5 44077.2 33367.1 30913.3 8815.74 37678.5 26137.9 12343.2 6871.72 10667.7 7442.78 10710.1 2359.25 9110.06 7366.71 6125.33 4385.92 9314.85 4494.36 8716.29 3958.35 7544.69
internal_count=671668 432266 274469 189229 160892 124710 55105 239402 219213 183900 140174 130302 36182 157797 108994 51596 28337 43793 30851 43726 9738 37181 30093 24921 17900 37603 18103 35313 15962 30853
is_linear=0
shrinkage=0.05


Tree=7
num_leaves=31
num_cat=0
split_feature=31 29 30 0 0 0 0 0 0 0 0 9 18 9 3 2 2 0 0 6 2 9 2 9 9 0 0 0 10 9
split_gain=23022.9 31478 42018.3 31429.1 33937.7 10354.8 11203.8 4999.38 12613.5 6598.85 11544.2 4131.23 2822.28 2375.17 2128.82 2793.42 2020.71 1953.86 6901.73 1766.77 1708.75 1678.57 1365.93 1199.91 1165.42 1112.12 1033.48 9645.99 1002.95 998.672
threshold=1.0000000180025095e-35 1.0000000180025095e-35 1.0000000180025095e-35 11.999879362341661 2.0000063630605562 1.0000746406245169 1.9884465130194606 7.9839283325929111 7.0001480689942754 6.9935861997635484 6.0001082346304884 91.500000000000014 1.0000000180025095e-35 50.500000000000007 1.0000000180025095e-35 4.5000000000000009 3.5000000000000004 3.9845611652909478 3.0000154969513226 132.90281962141276 5.5000000000000009 50.500000000000007 2.5000000000000004 79.500000000000014 85.500000000000014 9.0000484039661206 4.0000184706345712 4.9999030950008461 50.500000000000007 91.500000000000014
decision_type=2 2 2 2 2 2 2 2 2 2 2 2 2 2 2 2 2 2 2 2 2 2 2 2 2 2 2 2 2 2
left_child=1 2 3 4 5 21 -7 8 9 10 13 14 19 -4 15 17 24 18 -3 -2 28 -1 -15 -23 -8 -14 -19 -28 -18 -5
right_child=12 11 7 29 -6 6 16 -9 -10 -11 -12 -13 25 22 -16 -17 20 26 -20 -21 -22 23 -24 -25 -26 -27 27 -29 -30 -31
leaf_value=-0.054062226955005024 0.0065703843888056173 -0.040391862577499549 -0.055527411975082097 -0.057899528493250321 0.077847141904006364 0.077864980253085816 -0.028099852958419269 -0.062243053811353304 0.099758030196575712 -0.062613286260122233 0.080093964176845167 0.0079607758317140759 -0.057032445612383742 0.012786438575683422 -0.073996766583013171 0.10984259267969798 0.0036763532632243449 -0.070758292115207067 0.10309539388588418 -0.066998443994944298 -0.026523775074701928 0.0068733635725100328 -0.038089987202155673 -0.042451430027329477 0.029172770997933979 0.040412351376082997 0.11002709196018733 -0.066715856901278986 0.049717868222150852 -0.0050768624089808914
leaf_weight=4902.335233554244 866.60858964920044 6537.2212476581335 5191.3402336537838 7750.595591366291 41677.879142954946 7441.7887420356274 5429.1183743923903 8533.2235458940268 2087.2531308233738 8759.0795340240002 2974.8013670891523 3888.333701133728 416.42540574073792 3190.9126989990473 5797.2669514268637 308.30228479206562 1804.5575159788132 5391.957708761096 961.28756742179394 13996.908561736345 1509.5012525320053 3042.0182285755873 2249.1897788196802 2073.3449960500002 1061.9793594181538 986.31302618980408 904.67863458395004 5262.7277600765228 3433.128779605031 1011.5773380249739
leaf_count=20312 3571 27041 21427 32006 181443 32391 21939 35735 8773 36605 12695 15897 1688 12898 24253 1247 7268 22576 3850 59777 6096 12462 9173 8505 4304 3956 3660 22029 13958 4133
internal_value=5.80181e-05 0.00646213 0.0182909 0.0376352 0.0484628 0.00856817 0.0287795 -0.0292919 -0.017793 -0.0287635 -0.00697248 -0.0400044 -0.0563109 -0.0313347 -0.0474162 -0.0394593 0.00118654 -0.0418746 -0.0219972 -0.0627091 0.0203469 -0.0331552 -0.00824823 -0.0131188 -0.0187297 0.0114843 -0.0547689 -0.04079 0.033855 -0.0518012
internal_weight=159442 143175 114124 81137.8 72375.7 30697.8 20680.1 32985.8 24452.6 22365.3 13606.2 29051.8 16266.3 10631.4 25163.4 19366.2 13238.3 19057.9 7498.51 14863.5 6747.19 10017.7 5440.1 5115.36 6491.1 1402.74 11559.4 6167.41 5237.69 8762.17
internal_count=671668 602676 482123 344817 308678 127235 85956 137306 101571 92798 56193 120553 68992 43498 104656 80403 53565 79156 30891 63348 27322 41279 22071 20967 26243 5644 48265 25689 21226 36139
is_linear=0
shrinkage=0.05


Tree=8
num_leaves=31
num_cat=0
split_feature=7 0 29 0 30 29 0 31 30 0 0 0 0 31 30 0 0 0 1 7 1 1 1 10 8 0 0 1 9 2
split_gain=24245.9 12900.6 25325.5 11192.7 12558.8 9190.44 9073.18 8046.23 7808.69 7876.59 7403.65 7160.1 5760.79 4444.93 9890.08 21724.5 2987.58 3025.45 2666.92 2296.29 2128.85 2505.12 1987.65 1584.46 1511.29 1451.17 2217.47 1353.26 1254.23 1239.69
threshold=0.018553633260122989 6.9935861997635484 1.0000000180025095e-35 1.0000746406245169 1.0000000180025095e-35 1.0000000180025095e-35 2.0000063630605562 1.0000000180025095e-35 1.0000000180025095e-35 1.0000746406245169 11.999879362341661 1.9884465130194606 6.0001082346304884 1.0000000180025095e-35 1.0000000180025095e-35 11.999879362341661 2.0000063630605562 1.9884465130194606 24.00010047116373 0.038336000581793504 22.962800747324366 7.0001007139446543 27.999814027457059 50.500000000000007 99908.500000000015 9.0000484039661206 10.984017413865251 18.000111104369118 47.500000000000007 3.5000000000000004
decision_type=2 2 2 2 2 2 2 2 2 2 2 2 2 2 2 2 2 2 2 2 2 2 2 2 2 2 2 2 2 2
left_child=1 2 3 18 6 7 11 8 9 -2 16 -5 24 14 15 -3 17 -11 -1 -7 21 -10 -20 -13 -6 -9 -27 -12 -23 -25
right_child=5 13 -4 4 12 19 -8 25 20 10 27 23 -14 -15 -16 -17 -18 -19 22 -21 -22 28 -24 29 -26 26 -28 -29 -30 -31
leaf_value=-0.065686147417275312 -0.016687451738060733 0.075996121044773546 -0.050227572189314375 0.076021032411724601 -0.06101900945024407 -0.04086795009718322 0.07601943150556402 -0.061437182703439709 -0.042690400600272682 0.075564205665104953 -0.063044820068581711 -0.038044069412102699 0.077529572330263016 -0.065628526943551743 -0.057158120631375799 -0.059039095815384336 0.075519470840092889 0.018000647735811649 0.034422225750128814 0.0055546067317824872 -0.042201965633764708 -0.0066519224276845425 -0.074407960765616996 -0.023199747681495679 -0.012900059830573761 0.073877079647365715 -0.029979312598097049 0.01147375967575736 0.038481377011289064 0.030399147207821317
leaf_weight=3935.1461381614208 3946.9762435853481 5695.3380573987961 18094.078198388219 3403.0095609873533 3854.5193958580494 5493.5750260651112 14324.512912556529 1991.4945763498545 1653.2693813741207 3865.7620883136988 1216.4149054437876 3193.625752478838 1219.326251745224 11137.65486779809 13439.803604647517 6243.7765076607466 20688.327101960778 5573.7992129027843 1510.2601922005415 5171.5015389919281 2161.3295326828957 2171.7148092985153 580.93022908270359 1845.6081027537584 2829.6464900076389 668.47041393816471 2223.6151266396046 1220.5709032714367 5285.9500233083963 2596.530085965991
leaf_count=16569 15997 25313 76685 15120 16059 22911 63650 8353 6843 17271 4936 12896 5326 48795 57397 26267 92480 22576 6196 20957 8938 9016 2517 7488 11663 2691 9153 4936 22064 10605
internal_value=6.12161e-05 -0.0160633 -0.00128 0.0212599 0.0326178 0.023969 0.0497671 0.0325401 0.0387878 0.0500185 0.0581035 0.0157007 -0.0224164 -0.0392957 -0.0277395 0.00537701 0.064884 0.0415745 -0.0414388 -0.0183576 0.00241065 0.0129938 0.00418933 -0.0111821 -0.0406485 -0.0285917 -0.00597417 -0.025722 0.0253383 0.00813002
internal_weight=157237 93903.8 57387.2 39293.1 33266.8 63332.8 25363.3 52667.7 47784.1 36511.9 32564.9 11038.8 7903.49 36516.6 25378.9 11939.1 30127.9 9439.56 6026.34 10665.1 11272.3 9110.93 2091.19 7635.76 6684.17 4883.58 2892.09 2436.99 7457.66 4442.14
internal_count=671668 402546 244774 168089 142807 269122 109759 225254 205057 158196 142199 46109 33048 157772 108977 51580 132327 39847 25282 43868 46861 37923 8713 30989 27722 20197 11844 9872 31080 18093
is_linear=0
shrinkage=0.05


Tree=9
num_leaves=31
num_cat=0
split_feature=7 31 29 30 0 0 0 0 0 3 0 0 0 0 7 0 6 1 2 7 1 1 3 2 1 0 0 1 1 7
split_gain=22342.3 16660.9 21976.5 25983.4 20550.2 22719.3 6978.55 7698.14 4935.76 4338.05 3828.4 7209.23 5551.9 5944.84 3317.34 2377.28 2197.25 2137.7 2040.44 1910.43 1380.29 1414.96 1364.61 2253.01 1296.18 1263.92 1632.14 1130.75 2917.84 2162.56
threshold=0.0086479721960284524 1.0000000180025095e-35 1.0000000180025095e-35 1.0000000180025095e-35 11.999879362341661 2.0000063630605562 1.0000746406245169 1.9884465130194606 2.9999939464349277 1.0000000180025095e-35 7.9839283325929111 7.0001480689942754 6.9935861997635484 6.0001082346304884 0.038336000581793504 1.0000746406245169 132.90281962141276 24.00010047116373 2.5000000000000004 0.057179214985175163 19.000344798882743 23.999988151592234 1.0000000180025095e-35 4.5000000000000009 28.848974397234436 2.0000063630605562 1.9884465130194606 25.000096342269234 26.992348022901847 0.029273150906151433
decision_type=2 2 2 2 2 2 2 2 2 2 2 2 2 2 2 2 2 2 2 2 2 2 2 2 2 2 2 2 2 2
left_child=8 2 3 4 5 6 27 -8 15 10 11 12 13 -5 22 -1 -3 -6 20 -18 -9 -22 23 -4 -19 26 -17 29 -29 -2
right_child=1 16 14 9 17 -7 7 18 -10 -11 -12 -13 -14 -15 -16 25 19 24 -20 -21 21 -23 -24 -25 -26 -27 -28 28 -30 -31
leaf_value=-0.053357871157353964 -0.061742325049234187 0.028267008625691203 -0.035465497192122344 -0.010206360282311668 -0.059415679587706743 0.073809955522413789 0.073804733999098746 -0.050301392454218954 -0.059338276612533304 -0.059689172756468123 -0.048147112215592452 0.095335032311343423 -0.049737863687440681 0.076447346766569946 0.0052760032231675977 0.074854983638744113 -0.060276916511229017 0.026502168483566981 0.020195780672681587 0.0050346519835934777 0.095415694535563755 -0.017779214136019239 -0.065364183247454799 0.11108745727542212 -0.061625745433404738 0.075007672580762075 -0.016061772159088376 0.060508940444914922 -0.055393456154895805 -0.00065694629134130118
leaf_weight=1723.8790553957224 3531.9512082487345 893.06419019401073 13706.521285831928 7230.3627504706383 4900.9133784919977 37583.385997653008 6461.8941578418016 2221.3370201289654 16994.486024871469 5012.537231490016 4689.8397785872221 1875.8958595693111 5324.596806704998 2725.3163442909718 5172.3354570418596 623.83221566677094 10254.871927633882 1465.1659255921841 7205.5344018638134 1256.909918859601 380.43871036171913 1006.3998969048262 4133.5154022425413 267.36516115069389 583.35532499849796 763.1245673596859 2365.3042644709349 1141.8937880694866 1035.4022563397884 2456.6617733389139
leaf_count=7408 14971 3683 58202 29626 20567 172017 29577 9014 74237 21398 19959 8016 22609 12061 20957 2814 45197 6073 29324 5089 1536 4056 17776 1085 2446 3435 9635 4681 4373 9846
internal_value=6.52749e-05 0.00788256 0.0135801 0.0240666 0.040113 0.0491107 0.0126237 0.0306276 -0.0460361 -0.017739 -0.00811362 0.00283 -0.00852645 0.0135146 -0.0300391 -0.00475451 -0.0472847 -0.0414869 0.00482645 -0.0531459 -0.0258661 0.0132725 -0.0401268 -0.0326615 0.00140607 0.017575 0.00291254 -0.025465 0.00539213 -0.0366837
internal_weight=154988 132517 120113 96832.9 69974.3 63024.9 25441.5 17275.6 22470.6 26858.5 21846 17156.2 15280.3 9955.68 23279.7 5476.14 12404.8 6949.43 10813.7 11511.8 3608.18 1386.84 18107.4 13973.9 2048.52 3752.26 2989.14 8165.91 2177.3 5988.61
internal_count=671668 574139 520170 422150 308481 279395 107378 73507 97529 113669 92271 72312 64296 41687 98020 23292 53969 29086 43930 50286 14606 5592 77063 59287 8519 15884 12449 33871 9054 24817
is_linear=0
shrinkage=0.05


Tree=10
num_leaves=31
num_cat=0
split_feature=7 0 29 0 30 0 0 31 29 30 0 0 0 31 30 0 3 0 0 0 0 9 0 7 10 0 0 0 8 0
split_gain=20740.9 11993.2 24069.7 10691 13299.6 8020.21 6037.66 5418.25 6606.5 5353.35 5279.63 6471.75 5118.8 3836.33 8469.98 18697.1 2076.06 1946.98 2784.16 1592.06 6047.96 1495.88 1483.74 1479.65 1458.54 1457.03 1897.19 1719.55 1369.56 1335.67
threshold=0.02113480845658464 6.9935861997635484 1.0000000180025095e-35 1.0000746406245169 1.0000000180025095e-35 2.0000063630605562 1.9884465130194606 1.0000000180025095e-35 1.0000000180025095e-35 1.0000000180025095e-35 11.999879362341661 2.0000063630605562 6.0001082346304884 1.0000000180025095e-35 1.0000000180025095e-35 11.999879362341661 1.0000000180025095e-35 1.0000746406245169 1.9884465130194606 3.9845611652909478 3.0000154969513226 86.500000000000014 7.9839283325929111 0.057179214985175163 50.500000000000007 7.0001480689942754 6.9935861997635484 6.0001082346304884 99908.500000000015 9.0000484039661206
decision_type=2 2 2 2 2 2 2 2 2 2 2 2 2 2 2 2 2 2 2 2 2 2 2 2 2 2 2 2 2 2
left_child=1 2 3 -1 5 6 -5 8 9 10 11 17 28 14 15 -3 22 -2 -19 20 -4 -10 25 -20 -8 26 27 -11 -6 -9
right_child=7 13 19 4 12 -7 24 29 21 16 -12 -13 -14 -15 -16 -17 -18 18 23 -21 -22 -23 -24 -25 -26 -27 -28 -29 -30 -31
leaf_value=-0.038674267398473364 -0.0098689625161470836 0.072643419339864915 -0.043664747431709727 0.072406755093711583 -0.056277044857549585 0.072620307181169033 -0.026151852357793121 -0.058224318763642174 -0.022601200333567304 0.0093792060696723766 -0.022888001116861449 0.07194611955862161 0.073866523119333422 -0.062033003993291647 -0.053719567457842114 -0.055074626076633583 -0.047034731869609755 0.071944625642831425 -0.016432579930962418 -0.057870621921054126 0.10385562367761295 0.025305605887496974 -0.025708442715293597 0.045800686669540222 0.014056357355610186 0.07753926537516953 -0.028244019345515667 0.075173226526253731 -0.011969916997265389 -0.0044448977120129587
leaf_weight=6508.6894683688879 3207.3767253160477 5420.5726901590824 6800.5079121738672 3754.3496331870556 4519.2154351472855 14905.133373558521 3875.171075090766 1929.351424202323 6392.8704725056887 2644.4506642073393 2411.1929843276739 18372.526389405131 1159.1377042084932 10703.806077748537 13059.006741851568 6079.4187993705273 1533.211975723505 3170.6243281811476 2333.6171828210354 11999.870917871594 773.8350854665041 2186.857565715909 1717.0193236619234 1616.8625031262636 5396.0631250888109 1152.5828674286604 1715.2791046053171 1590.2750165760517 2840.2599342167377 2874.8866253942251
leaf_count=28015 12918 25300 29261 17574 19211 69585 15704 8302 26399 10641 9862 86675 5307 48790 57431 26256 6474 14958 9372 52608 3103 8845 7154 6667 22092 5155 7059 7150 11775 11897
internal_value=6.76083e-05 -0.0137353 -0.000586525 0.0203533 0.0308938 0.0475735 0.0189125 0.024678 0.0295471 0.0378107 0.0481742 0.0541442 -0.0237955 -0.0370522 -0.0261646 0.00512585 0.00666648 0.0224778 0.037047 -0.0465416 -0.0285933 -0.0103904 0.016002 0.00903841 -0.00274979 0.0260853 0.0161181 0.034087 -0.0391775 -0.0260424
internal_weight=152644 97795 62532.2 42958 36449.3 27930.7 13025.6 54849 50044.7 41465 31112.2 28701 8518.61 35262.8 24559 11500 10352.8 10328.5 7121.1 19574.2 7574.34 8579.73 8819.61 3950.48 9271.23 7102.59 5950 4234.73 7359.48 4804.24
internal_count=671540 432012 274235 189263 161248 124955 55370 239528 219329 184085 140452 130590 36293 157777 108987 51556 43633 43915 30997 84972 32364 35244 37159 16039 37796 30005 24850 17791 30986 20199
is_linear=0
shrinkage=0.05


Tree=11
num_leaves=31
num_cat=0
split_feature=7 29 0 0 30 7 0 0 0 0 7 0 0 3 0 2 30 0 0 0 9 0 0 30 0 0 0 3 2 8
split_gain=19440.5 13608.7 19545.6 11822.5 8874.26 7134.56 7130.99 6942.16 6881.44 4232.28 2947.68 2646.01 11346.2 2199.52 2022.83 1902.96 1777.98 4878.19 2782.32 8544.78 1523.68 1375.21 1933.19 1304.29 1455.78 2948.43 2572.75 1268.18 2085 1146.97
threshold=0.0086479721960284524 1.0000000180025095e-35 6.9935861997635484 1.0000746406245169 1.0000000180025095e-35 0.022434421763187908 2.0000063630605562 6.0001082346304884 1.9884465130194606 2.9999939464349277 0.038336000581793504 7.0001480689942754 7.9839283325929111 1.0000000180025095e-35 1.0000746406245169 2.5000000000000004 1.0000000180025095e-35 8.9999198992572005 9.0000484039661206 10.984017413865251 55.500000000000007 7.0001480689942754 7.9839283325929111 1.0000000180025095e-35 8.9999198992572005 9.0000484039661206 10.984017413865251 1.0000000180025095e-35 4.5000000000000009 29160.500000000004
decision_type=2 2 2 2 2 2 2 2 2 2 2 2 2 2 2 2 2 2 2 2 2 2 2 2 2 2 2 2 2 2
left_child=9 2 3 -2 6 11 8 20 -5 14 27 -4 -13 21 -1 29 17 -14 -19 -20 -6 -7 -23 24 -24 -26 -27 28 -3 -10
right_child=1 10 5 4 7 13 -8 -9 15 -11 -12 12 16 -15 -16 -17 -18 18 19 -21 -22 22 23 -25 25 26 -28 -29 -30 -31
leaf_value=-0.05036983863154864 -0.023076882569514283 -0.032818397624707521 -0.059453061989954641 0.070571222247552148 -0.041533999353984032 -0.022029475252095143 0.07059106384169625 0.0731980147511163 0.014855943935668602 -0.056134978755469404 0.005770106998630598 0.090239418078326514 0.070743237884028143 -0.027243715209123248 0.015639014187234953 0.019102891973242608 -0.058338033610563958 -0.06997789652801932 0.06657161755852968 -0.039783061591823238 0.00047778354921273005 0.071207816577348343 0.070350696823894929 -0.023950241183000383 -0.050790493932537498 0.073044175147508009 0.007905506223783167 -0.062046343842176478 0.10652268533133043 -0.045145782378038568
leaf_weight=1691.6243260204792 7975.199168741703 13358.192204713821 4751.9675677269697 6132.0931339263916 3923.078758880496 1523.3975499421358 24097.700128600001 2710.068015858531 1187.4945047348738 16449.979155004025 5134.4323672652245 2173.959156230092 1297.6752770543098 2565.8859568685293 3697.5361706614494 7206.3833990395069 4321.7347045987844 3419.3172759264708 2352.1743889302015 9581.3632572889328 4797.4073462486267 2175.5518813580275 1573.8295089453459 1485.6163720190525 1310.9143897145987 2366.6490103602409 4216.6905764937401 3996.8377369046211 273.97152246534824 2418.6882351189852
leaf_count=7429 33504 57889 21216 29696 16530 6271 116658 12581 4842 74273 20851 9800 6263 11135 15985 29446 19309 15994 11055 43430 19663 10421 7655 6194 5677 11028 18063 17746 1108 9828
internal_value=7.28288e-05 0.00749435 0.0150553 0.0336424 0.042263 -0.00984805 0.0531144 0.00330015 0.0282602 -0.0435365 -0.0275694 -0.0254686 -0.0184915 0.0154609 -0.00508076 0.00426453 -0.0297624 -0.0223454 -0.0302136 -0.0188199 -0.018422 0.0229391 0.0281569 0.0196064 0.0264407 0.0176867 0.0313222 -0.0372794 -0.030018 -0.0253876
internal_weight=150167 128328 105565 60448.1 52472.9 45116.7 41042.4 11430.6 16944.7 21839.1 22763.4 27898.2 23146.2 17218.5 5389.16 10812.6 20972.3 16650.5 15352.9 11933.5 8720.49 14652.6 13129.3 10953.7 9468.08 7894.25 6583.34 17629 13632.2 3606.18
internal_count=671540 573853 476259 272748 239244 203511 190470 48774 73812 97687 97594 127067 105851 76444 23414 44116 96051 76742 70479 54485 36193 65309 59038 48617 42423 34768 29091 76743 58997 14670
is_linear=0
shrinkage=0.05


Tree=12
num_leaves=31
num_cat=0
split_feature=7 31 29 30 7 7 2 1 6 30 29 31 1 1 9 7 2 1 2 8 9 9 7 10 1 1 10 1 1 9
split_gain=17811.3 13178.5 16977.9 20415.6 3214.42 2706.99 2627.18 2141.57 1922.82 1897.78 2301.58 3729.76 1767.79 1922.13 1733.03 1656.09 1629.54 1240.97 1034.09 991.014 941.98 917.88 901.488 870.999 864.861 1222.28 814.03 790.123 1086.15 752.278
threshold=0.0086479721960284524 1.0000000180025095e-35 1.0000000180025095e-35 1.0000000180025095e-35 0.021363177404202679 0.038336000581793504 5.5000000000000009 27.999814027457059 132.90281962141276 1.0000000180025095e-35 1.0000000180025095e-35 1.0000000180025095e-35 23.999988151592234 7.0001007139446543 50.500000000000007 0.057179214985175163 3.5000000000000004 5.9815101229973537 5.5000000000000009 41352.000000000007 75.500000000000014 73.500000000000014 0.018553633260122989 50.500000000000007 25.000096342269234 24.999856946332276 60.500000000000007 3.0001342395071093 3.974953670983767 50.500000000000007
decision_type=2 2 2 2 2 2 2 2 2 2 2 2 2 2 2 2 2 2 2 2 2 2 2 2 2 2 2 2 2 2
left_child=9 2 3 6 16 17 7 14 -3 10 11 23 13 -6 22 -10 29 27 -15 -8 21 -7 -2 -1 25 -16 -25 -4 -29 -5
right_child=1 8 5 4 12 20 19 -9 15 -11 -12 -13 -14 18 24 -17 -18 -19 -20 -21 -22 -23 -24 26 -26 -27 -28 28 -30 -31
leaf_value=-0.020795704441181864 0.019766624974970851 0.027561861587132877 -0.032494589014644623 -0.03208511484373882 -0.036803981458581957 0.0038571528192437861 0.023905772187500993 -0.002766675561836691 -0.055698295271243287 -0.068417470543819262 -0.061972059525248424 -0.067479966215086049 -0.041316087913668247 0.031187514809760258 0.046096588984954667 0.0054031260920644458 -0.051873760481173349 -0.042453499523065603 -0.048314814420516765 -0.022966400170187286 0.03092461911811209 -0.059091468309205232 0.039879720683380533 0.035863938492566354 0.067016264469683715 -0.051849665673102729 -0.0075639824597245487 0.11856167579355935 -0.00015569005644792215 -0.0051072130989940198
leaf_weight=3883.8621067106724 10370.979187771678 893.64262063801289 1756.3017526566982 4976.6876075416803 1456.9078032374382 2222.7766909599304 2203.3488361388445 2865.59498937428 9701.7808652371168 5151.1979721933603 4983.875767454505 3155.3198559582233 1632.5679923892021 6621.6053133308887 30658.882923990488 1252.0960025042295 5441.5867259353399 13980.733134672046 435.94030126929283 2309.928055614233 2129.287543207407 783.12824200093746 12037.404657840729 1942.9925900548697 5254.9207838773727 321.86204068362713 2426.774699896574 221.59440463781357 1475.7584413737059 5374.8486456573009
leaf_count=17126 48411 3679 7531 22181 6203 9027 9748 13037 45139 23607 22622 15065 6950 28615 145459 5106 24444 62009 1865 10194 8629 3195 55894 8633 24500 1342 10634 915 6288 23492
internal_value=7.71831e-05 0.00724063 0.0124336 0.0219704 -0.0156139 -0.0264256 0.0367371 0.0394388 -0.0429606 -0.0419445 -0.0336258 -0.0212431 0.00634449 0.015483 0.0415011 -0.048714 -0.029722 -0.0358234 0.0262767 -8.37477e-05 0.00548077 -0.0125428 0.030571 -0.00356696 0.0482604 0.045079 0.011746 -0.00898395 0.0153432 -0.0180773
internal_weight=147924 126380 114533 91963.1 25940.1 22569.6 66022.9 61509.6 11847.5 21544 16392.8 11408.9 10147 8514.45 58644 10953.9 15793.1 17434.4 7057.55 4513.28 5135.19 3005.9 22408.4 8253.63 36235.7 30980.7 4369.77 3453.65 1697.35 10351.5
internal_count=671540 573853 519929 422335 113750 97594 308585 288643 53924 97687 74080 51458 43633 36683 275606 50245 70117 76743 30480 19942 20851 12222 104305 36393 171301 146801 19267 14734 7203 45673
is_linear=0
shrinkage=0.05


Tree=13
num_leaves=31
num_cat=0
split_feature=7 0 29 0 30 0 0 0 2 31 30 0 31 29 30 0 0 1 1 1 0 10 1 1 1 2 1 1 0 0
split_gain=16393.7 10018.1 19453.8 10135.8 10027.3 8205.49 5762.54 4723.17 3632.16 3508.14 6721.91 17625.6 2949.98 3789.65 3471.69 3302.6 3800.32 2636.67 2300.15 1444.83 3589.42 1437.28 1410.49 1305.15 1508.37 1274.87 1397.21 1233.08 1203.82 1208.3
threshold=0.022434421763187908 6.9935861997635484 1.0000000180025095e-35 1.0000746406245169 1.0000000180025095e-35 2.0000063630605562 1.9884465130194606 6.0001082346304884 5.5000000000000009 1.0000000180025095e-35 1.0000000180025095e-35 11.999879362341661 1.0000000180025095e-35 1.0000000180025095e-35 1.0000000180025095e-35 11.999879362341661 2.0000063630605562 25.000096342269234 26.992348022901847 4.9999731916847017 3.9845611652909478 50.500000000000007 15.000040777793913 23.999988151592234 6.00005963430036 3.5000000000000004 13.000188423628915 25.000096342269234 9.0000484039661206 10.984017413865251
decision_type=2 2 2 2 2 2 2 2 2 2 2 2 2 2 2 2 2 2 2 2 2 2 2 2 2 2 2 2 2 2
left_child=1 2 3 17 5 6 -5 -6 12 10 11 -3 13 14 15 16 -2 -1 -19 20 -4 22 -8 24 -16 26 -23 -13 -14 -30
right_child=8 9 19 4 7 -7 21 -9 -10 -11 -12 27 28 -15 23 -17 -18 18 -20 -21 -22 25 -24 -25 -26 -27 -28 -29 29 -31
leaf_value=-0.058563096031961262 0.026412209372674845 0.069605909427968612 0.038837342634556231 0.068994968174264037 -0.032155436767246304 0.069241255597643242 -0.062932766690729849 0.071261106793585521 -0.026100383906740285 -0.056864046468639046 -0.04706515478738077 -0.065836180307321759 -0.050690757491116546 -0.001929922225778446 -0.039907818160473917 -0.015317099597607074 0.068265773040065328 0.058222495434418375 -0.047510510611593691 -0.046848829309095036 -0.066934710550199325 -0.074072980504423555 -0.0029412459998407639 -0.036423202882606115 0.028379256218843282 0.031353403237123913 0.0096323069146965548 -0.014338128701342979 0.068528867205188887 -0.013806813136406524
leaf_weight=4631.3878923207521 8494.341872304678 5558.902478158474 1728.2365693449974 3609.5417306572199 7584.7657547742128 14931.729447826743 1674.3105517923832 1292.1534892171621 3329.1134104281664 10597.553214401007 13165.079990148544 4656.4597615897655 1422.0492536276579 6836.5490110069513 937.31188608705997 1904.8573731333017 15003.559543356299 1112.2702255398035 956.87950365245342 16473.151938915253 1496.735175549984 735.11195388436317 2362.0052372664213 1257.507853910327 5891.9882127046585 3277.5257062017918 1549.1012507528067 1549.0784206092358 604.44754262268543 1695.5282720923424
leaf_count=20328 37318 27634 7187 18124 32782 74771 6854 6195 14484 51458 60649 20714 6325 28117 3970 7731 76583 4594 4236 75182 6749 3006 9529 5344 25545 13616 6290 6732 2437 7056
internal_value=7.15289e-05 -0.0115096 0.000398852 0.0189882 0.0292314 0.0438478 0.0151394 -0.0171018 0.0242574 -0.0327659 -0.0225218 0.00494355 0.0280634 0.0319945 0.0389198 0.0480029 0.053136 -0.0375986 0.0093262 -0.0408573 -0.0102523 -0.00511407 -0.0278264 0.0103875 0.019007 0.0113689 -0.017306 -0.0529808 -0.0145277 0.0078315
internal_weight=146319 98942 63414.9 43716.8 37016.2 28139.3 13207.6 8876.92 47377.3 35527.1 24929.5 11764.4 44048.1 40326.1 33489.6 25402.8 23497.9 6700.54 2069.15 19698.1 3224.97 9598.05 4036.32 8086.81 6829.3 5561.74 2284.21 6205.54 3722.03 2299.98
internal_count=671540 456630 289443 200325 171167 132190 57419 38977 214910 167187 115729 55080 200426 184608 156491 121632 113901 29158 8830 89118 13936 39295 16383 34859 29515 22912 9296 27446 15818 9493
is_linear=0
shrinkage=0.05


Tree=14
num_leaves=31
num_cat=0
split_feature=7 31 29 30 0 0 0 0 0 3 0 0 0 0 9 1 1 0 6 2 7 0 0 0 1 9 1 1 9 3
split_gain=15537.7 11143.9 14197.2 17138.2 15081.7 18827.7 4890.48 6387.61 3510.84 3423.57 2911.64 5934.46 4171.06 4317.72 2451.03 1987.97 1856.75 4063.07 1742.74 1680.11 1501.8 1491.54 1368.85 1782.13 1315.03 1220.7 1171.75 1225.67 1073.63 1025.49
threshold=0.0086479721960284524 1.0000000180025095e-35 1.0000000180025095e-35 1.0000000180025095e-35 11.999879362341661 2.0000063630605562 1.0000746406245169 1.9884465130194606 3.9845611652909478 1.0000000180025095e-35 7.9839283325929111 7.0001480689942754 6.9935861997635484 6.0001082346304884 91.500000000000014 25.000096342269234 5.9815101229973537 3.9845611652909478 132.90281962141276 2.5000000000000004 0.057179214985175163 3.0000154969513226 2.9999939464349277 2.0000063630605562 28.848974397234436 55.500000000000007 19.000344798882743 23.999988151592234 36.500000000000007 1.0000000180025095e-35
decision_type=2 2 2 2 2 2 2 2 2 2 2 2 2 2 2 2 2 2 2 2 2 2 2 2 2 2 2 2 2 2
left_child=8 2 3 4 5 6 -2 -8 21 10 11 12 13 25 16 -6 17 -4 -3 26 -20 22 23 -1 -17 -5 -9 -28 -21 -18
right_child=1 18 14 9 15 -7 7 19 -10 -11 -12 -13 -14 -15 -16 24 29 -19 20 28 -22 -23 -24 -25 -26 -27 27 -29 -30 -31
leaf_value=-0.016225187867434179 -0.022998419550628962 0.027099176433051094 0.043974086857465101 -0.030525083617673039 -0.052925060761639497 0.067349894162003834 0.067582572844079702 -0.048444152066019909 -0.054972246364910195 -0.052685940903307388 -0.041319534543093089 0.090544329033903789 -0.043066669024048959 0.070190250759889813 0.012857526514251059 0.036935305296827224 -0.032930716705736322 -0.058966497388338916 -0.052730569566560026 -0.017908535008463986 0.0057197934346445338 0.082773202469472396 -0.057051146725837165 0.069723630071371487 -0.055379304016015443 0.011389956598673673 0.089971462543292524 -0.017524615918074929 0.027196273627224762 -0.065289592749198946
leaf_weight=4571.1895759254694 7898.8827211558819 888.18353040516376 2194.0172819495201 3046.1662575602531 4922.0844229012728 32882.106121852994 5711.9794687479734 2202.9916090816259 13510.733222946525 4697.2121093571186 4442.9837041050196 1778.7168232798576 5026.0379177778959 2465.871790394187 3716.5433596074581 1248.0868463665247 11421.022738277912 1702.2966070622206 9304.920200586319 1747.0581815689802 1246.1197523921728 393.16406697034836 1652.0689398497343 694.78250628709793 558.36460366845131 4041.8333491533995 357.65863911807537 1025.4607514888048 5388.6822980493307 3116.5157344341278
leaf_count=19984 33504 3679 9007 13032 21494 172128 29696 9050 64917 21443 20009 8012 22620 12082 15663 5218 50818 7605 45139 7155 5106 1731 7625 3430 2429 16552 1467 4153 22291 14501
internal_value=7.48895e-05 0.00683501 0.0116529 0.020528 0.0343492 0.0426765 0.00933391 0.0248744 -0.039869 -0.0141312 -0.00542516 0.00432371 -0.00619501 0.0132022 -0.0241843 -0.0364604 -0.0316525 -0.00100058 -0.0401651 0.00212193 -0.0458273 -0.011959 -0.0173428 -0.00488526 0.00840135 -0.00662361 -0.0257978 0.0102726 0.0161532 -0.0398677
internal_weight=143854 123032 111593 89442.2 63943.4 57214.8 24332.7 16433.8 20821.9 25498.8 20801.6 16358.6 14579.9 9553.87 22150.4 6728.54 18433.9 3896.31 11439.2 10721.9 10551 7311.21 6918.04 5265.97 1806.45 7088 3586.11 1383.12 7135.74 14537.5
internal_count=671540 573853 519929 422335 308585 279444 107316 73812 97687 113750 92307 72298 64286 41666 97594 29141 81931 16612 53924 44116 50245 32770 31039 23414 7647 29584 14670 5620 29446 65319
is_linear=0
shrinkage=0.05


Tree=15
num_leaves=31
num_cat=0
split_feature=7 31 29 30 2 1 31 29 30 7 7 2 9 1 1 1 6 9 9 1 3 9 3 1 1 10 1 1 9 9
split_gain=14345.4 7965.23 9860.72 17178.4 3661.53 3030.25 2657.64 2994.99 2522.22 2270.97 2067.8 1441.18 1343.57 1265.43 1215.02 1037.55 993.896 937.574 936.807 824.779 921.702 782.783 779.342 789.427 1101.07 726.887 718.495 812.258 725.814 1233.83
threshold=0.02113480845658464 1.0000000180025095e-35 1.0000000180025095e-35 1.0000000180025095e-35 5.5000000000000009 27.999814027457059 1.0000000180025095e-35 1.0000000180025095e-35 1.0000000180025095e-35 0.007219421939650761 0.013662615350271337 3.5000000000000004 50.500000000000007 8.0000276662015217 5.9815101229973537 21.982779324751373 1.0000000180025095e-35 91.500000000000014 86.500000000000014 3.0001342395071093 1.0000000180025095e-35 53.500000000000007 1.0000000180025095e-35 26.992348022901847 24.00010047116373 20.500000000000004 26.992348022901847 6.00005963430036 84.500000000000014 55.500000000000007
decision_type=2 2 2 2 2 2 2 2 2 2 2 2 2 2 2 2 2 2 2 2 2 2 2 2 2 2 2 2 2 2
left_child=1 2 3 9 5 6 7 8 -2 22 -5 26 25 -10 19 -15 -3 -16 -9 -4 -21 -8 23 24 -1 -11 27 -12 29 -29
right_child=4 16 14 10 -6 -7 21 18 13 12 11 -13 -14 15 17 -17 -18 -19 -20 20 -22 -23 -24 -25 -26 -27 -28 28 -30 -31
leaf_value=-0.00010935713050335456 0.045790925307165477 0.011122698020443349 -0.036429267244402971 -0.064147355972935763 -0.026597716814737833 -0.025548797717250379 -0.043654495141350252 -0.0090791210180137492 -0.026015749014737039 -0.031454222411975118 -0.041197093497524928 -0.048021015049907599 0.034605151089525707 0.033097978044052949 -0.0496748739138336 -0.015083083090987402 -0.059053472561405376 -0.0051742244411262569 0.031843455420802608 0.027546988173934962 -0.06571515443600609 0.0047632665073113669 -0.036107604674778124 -0.0500667568448388 0.060399646104358024 0.017392353873307308 -0.052612913637064176 -0.017101574673007925 -0.048758946788382489 0.027312206728162414
leaf_weight=4526.1679360419512 25402.063187643886 534.46793721616268 1917.7363008856773 4810.4806416481733 3714.3108798414469 2795.3276251554489 1328.861467808485 5133.7440424114466 1576.2865693569183 804.63629946112633 1748.4977919608355 5152.2381356656551 19778.354847148061 5638.9165647923946 13225.028032675385 1393.495185598731 9012.6312692910433 1299.9674206823111 1922.118645876646 1470.1285684704781 323.15722973644733 2245.1901657581329 1526.3598027080297 609.61764906346798 901.57901801168919 14246.526874899864 1153.1701488941908 3557.7620690613985 777.64859753847122 2789.980515897274
leaf_count=20660 127585 2287 8557 23514 16500 12391 6044 21553 6856 3702 7982 24282 98168 24930 62894 6025 46446 5774 7840 6264 1524 9686 6785 2743 3974 68632 5354 16335 3487 12418
internal_value=5.8551e-05 -0.0119401 -0.00682604 0.00262843 0.0212094 0.0249527 0.0281151 0.0317141 0.0378643 0.0206455 -0.0355812 -0.0265283 0.0260384 0.0144749 -0.0391685 0.0235507 -0.0551249 -0.0456921 0.00206878 -0.0136352 0.0107408 -0.0132389 -0.00418771 0.00388224 0.00994153 0.014781 -0.0154846 -0.0106597 -0.00316616 0.00241932
internal_weight=141316 90166.1 80619 62383 51150.3 47436 44640.7 41066.6 34010.8 42393.2 19989.8 15179.3 34829.5 8608.7 18236 7032.41 9547.1 14525 7055.86 3711.02 1793.29 3574.05 7563.72 6037.36 5427.75 15051.2 10027.1 8873.89 7125.39 6347.74
internal_count=671192 431782 383049 298036 239410 222910 210519 194789 165396 204664 93372 69858 170502 37811 85013 30955 48733 68668 29393 16345 7788 15730 34162 27377 24634 72334 45576 40222 32240 28753
is_linear=0
shrinkage=0.05


Tree=16
num_leaves=31
num_cat=0
split_feature=7 31 29 30 0 0 0 0 3 0 0 0 0 0 3 2 1 7 8 7 0 6 0 0 1 9 9 9 0 0
split_gain=13187.9 9466.23 11726.3 14447.5 14026.7 18448.4 4417.94 6229.73 3056.09 3034.17 2667.96 5322.68 3634.8 3983.56 2261.67 2565.04 1852.15 1754.82 1682.81 1525.06 1363.37 1265.42 1213.87 1625.39 1153.33 1064.98 1023.58 961.769 937.518 1326.27
threshold=0.0086479721960284524 1.0000000180025095e-35 1.0000000180025095e-35 1.0000000180025095e-35 11.999879362341661 2.0000063630605562 1.0000746406245169 1.9884465130194606 1.0000000180025095e-35 3.9845611652909478 7.9839283325929111 7.0001480689942754 6.9935861997635484 6.0001082346304884 1.0000000180025095e-35 4.5000000000000009 25.000096342269234 0.038336000581793504 35399.000000000007 0.057179214985175163 3.0000154969513226 132.90281962141276 2.9999939464349277 2.0000063630605562 28.848974397234436 55.500000000000007 55.500000000000007 50.500000000000007 1.0000746406245169 1.9884465130194606
decision_type=2 2 2 2 2 2 2 2 2 2 2 2 2 2 2 2 2 2 2 2 2 2 2 2 2 2 2 2 2 2
left_child=9 2 3 4 5 6 27 -8 10 20 11 12 13 25 15 17 -6 -4 -9 21 22 -3 23 28 -18 -5 -20 -2 -1 -30
right_child=1 19 14 8 16 -7 7 18 -10 -11 -12 -13 -14 -15 -16 -17 24 -19 26 -21 -22 -23 -24 -25 -26 -27 -28 -29 29 -31
leaf_value=-0.046123047601118843 -0.043018437289421445 0.017614625275011613 -0.026299450626226725 -0.028694798668056021 -0.052213127184304403 0.065686131792874899 0.06589509575649688 0.023095730280219155 -0.050264821311023201 -0.051850968584451908 -0.039585735968797518 0.087428516552176538 -0.040394400007181808 0.068676514441594796 -0.053831603507982884 0.099098396890581641 0.033262674033579763 0.011226916389797576 -0.04085700703819229 0.011338211415681126 0.080811059454294551 -0.049991924412823699 -0.054838181732214178 0.068346148395266884 -0.053379255811432991 0.01057088522845441 0.00063774020632998871 -0.0078876329349554224 0.069586269704225726 -0.015219169434865377
leaf_weight=1611.1205611079931 3450.2633523494005 750.35003653168678 12710.148326650262 3006.7231248468161 4899.1452816277742 31169.144836395979 5450.2811549305916 4565.1027072370052 4521.4278641045094 12949.494471505284 4346.4886533468962 1729.5285108834505 4894.365059748292 2377.9042201638222 4437.2069002836943 488.70590205490589 1263.1087080091238 4126.7980700135231 2593.7653975337744 1385.673779964447 380.38278123736382 8922.8022197186947 1580.8736497014761 662.58434695005417 551.92831489443779 4056.7602822780609 3480.4766179919243 4475.0730875432491 573.01111303269863 2358.9401147514582
leaf_count=7390 14856 3101 57946 13040 21552 171786 29814 19117 21304 64848 19978 7986 22510 12079 20953 1984 5228 16855 10618 5676 1714 45218 7575 3380 2431 16632 14291 18785 2840 9705
internal_value=5.27199e-05 0.00635017 0.0108381 0.0190637 0.032008 0.0403103 0.00737476 0.0224261 -0.0130713 -0.0374047 -0.00483257 0.00456995 -0.00542647 0.0127007 -0.0219811 -0.0138239 -0.0362288 -0.0171016 0.000157954 -0.0377201 -0.0113027 -0.0447477 -0.0164656 -0.00481248 0.00691603 -0.00614339 -0.017081 -0.0231817 -0.0154823 0.00135493
internal_weight=139770 119653 108594 86831.5 61898.3 55184.1 24015 16089.6 24933.2 20116.4 20411.8 16065.3 14335.8 9441.39 21762.9 17325.7 6714.18 16836.9 10639.3 11058.8 7166.91 9673.15 6786.53 5205.66 1815.04 7063.48 6074.24 7925.34 4543.07 2931.95
internal_count=671192 573740 519745 422007 308478 279267 107481 73840 113529 97452 92225 72247 64261 41751 97738 76785 29211 74801 44026 53995 32604 48319 30890 23315 7659 29672 24909 33641 19935 12545
is_linear=0
shrinkage=0.05


Tree=17
num_leaves=31
num_cat=0
split_feature=7 0 29 0 30 0 0 0 3 31 30 0 1 1 1 31 29 30 0 0 0 0 1 1 10 0 1 0 0 1
split_gain=12369.3 7683.02 13877.4 8270.47 7452.93 7490.19 4979.07 3750.48 2772.21 2650.84 4774.59 14589.3 2484.33 2141.45 2123.41 1465.21 1833.13 1721.43 2006.06 2625.67 1281.13 5849.05 3627.83 1273.14 1259.8 1232.97 1228.12 1070.14 8580.48 998.846
threshold=0.022434421763187908 6.9935861997635484 1.0000000180025095e-35 1.0000746406245169 1.0000000180025095e-35 2.0000063630605562 1.9884465130194606 6.0001082346304884 1.0000000180025095e-35 1.0000000180025095e-35 1.0000000180025095e-35 11.999879362341661 25.000096342269234 27.999814027457059 27.999814027457059 1.0000000180025095e-35 1.0000000180025095e-35 1.0000000180025095e-35 11.999879362341661 2.0000063630605562 3.9845611652909478 3.0000154969513226 4.9999731916847017 18.000111104369118 50.500000000000007 2.9999939464349277 15.000040777793913 4.0000184706345712 4.9999030950008461 25.000096342269234
decision_type=2 2 2 2 2 2 2 2 2 2 2 2 2 2 2 2 2 2 2 2 2 2 2 2 2 2 2 2 2 2
left_child=1 2 3 12 5 6 -5 -6 14 10 11 -3 -1 -14 15 16 17 18 19 -2 21 22 -4 -20 26 -10 -8 -22 -29 -13
right_child=8 9 20 4 7 -7 24 -9 25 -11 -12 29 13 -15 -16 -17 -18 -19 23 -21 27 -23 -24 -25 -26 -27 -28 28 -30 -31
leaf_value=-0.055785910060162418 0.024771905458336199 0.066167090952941807 0.03070480186379684 0.065383941591067751 -0.027862800410438857 0.065639392729900367 -0.060389066138033 0.067875927815482989 0.021723617053434358 -0.051908848653280215 -0.042167710750122211 -0.061659959396753762 0.043885109045876163 -0.067129542303245776 -0.020867420352833524 -0.0042766513480835032 0.0075418871837267176 0.016756807294602691 -0.048232916544436677 0.06421538032193165 -0.062971566634262482 0.10590294219142048 -0.05646163209352139 0.046994903831050518 0.0093425995142053415 -0.022043789736211728 -0.0042366194615375916 0.1340270965124121 -0.053062986439098285 -0.014775654355093938
leaf_weight=4501.8019956201315 6498.1556355655193 5009.1324686557055 1577.8493387103081 3259.7389054596424 7300.3435323089361 13361.897677198052 1664.1280290186405 1189.6377940922976 2455.9329306483269 9606.6321402341127 12217.299989536405 4425.2007700055838 1442.715939193964 621.54360474646091 2176.6561462879181 2863.7836147844791 5799.2908574491739 6769.6200338155031 883.09123945236206 12030.50473921001 5135.4427087605 827.79272937774658 4902.6853115260601 582.50058344006538 5481.3276608586311 4666.8184924125671 2347.1284973472357 690.38884125649929 5456.1949658095837 1528.3673177361488
leaf_count=20378 29676 27632 6583 18206 32774 74586 6909 6226 11331 51412 60305 20795 5965 2978 9705 12544 23967 30267 3649 69811 25508 3347 23813 2364 22841 21497 9494 2960 26950 6719
internal_value=5.91526e-05 -0.0103748 0.000295952 0.0164868 0.0262486 0.0394793 0.0120688 -0.0144476 0.021649 -0.0298245 -0.020672 0.00328381 -0.0349597 0.0104589 0.0270666 0.0300117 0.0330272 0.0385495 0.045928 0.0503822 -0.0355603 -0.0192521 -0.0352388 -0.0103845 -0.00623952 -0.00695274 -0.0275323 -0.0461245 -0.0320489 -0.0496241
internal_weight=137274 92547.3 59760.6 41170.3 34604.2 26114.2 12752.3 8489.98 44726.4 32786.6 23180 10962.7 6566.06 2064.26 37603.6 35426.9 32563.2 26763.9 19994.3 18528.7 18590.4 7308.33 6480.53 1465.59 9492.58 7122.75 4011.26 11282 6146.58 5953.57
internal_count=671192 456381 289518 200357 171036 132036 57450 39000 214811 166863 115451 55146 29321 8943 181983 172278 159734 135767 105500 99487 89161 33743 30396 6013 39244 32828 16403 55418 29910 27514
is_linear=0
shrinkage=0.05


Tree=18
num_leaves=31
num_cat=0
split_feature=7 31 29 30 3 1 1 3 2 2 1 1 1 30 29 31 6 7 7 1 7 8 7 1 1 1 1 2 1 1
split_gain=11534.3 8052.14 9996.12 12349.2 2743.61 2111.82 2396.72 2022.61 2236.93 1882.89 1686.74 1519.16 1775.51 1481.13 1732.57 2741.72 1414.44 1240.34 1233.91 1164.15 1045.24 832.857 825.255 813.069 773.287 1445.69 744.389 959.827 655.596 742.301
threshold=0.0086479721960284524 1.0000000180025095e-35 1.0000000180025095e-35 1.0000000180025095e-35 1.0000000180025095e-35 23.999988151592234 10.000413490031004 1.0000000180025095e-35 4.5000000000000009 5.5000000000000009 27.999814027457059 5.9815101229973537 2.0000279396928051 1.0000000180025095e-35 1.0000000180025095e-35 1.0000000180025095e-35 132.90281962141276 0.057179214985175163 0.038336000581793504 26.000094408137866 0.021363177404202679 41352.000000000007 0.038336000581793504 10.999877160044724 2.99989860971252 3.0001342395071093 3.974953670983767 1.5000000000000002 25.999876781079159 25.000096342269234
decision_type=2 2 2 2 2 2 2 2 2 2 2 2 2 2 2 2 2 2 2 2 2 2 2 2 2 2 2 2 2 2
left_child=13 2 3 9 5 6 -5 8 11 10 18 12 -4 14 15 -1 -3 -18 19 28 23 -11 -13 -8 -14 -26 -27 -28 29 -2
right_child=1 16 7 4 -6 -7 20 -9 -10 21 -12 22 24 -15 -16 -17 17 -19 -20 -21 -22 -23 -24 -25 25 26 27 -29 -30 -31
leaf_value=-0.0020205315454774266 0.026795195905121739 0.025329231656087515 -0.04968728267332765 -0.022748260501462596 -0.047775001135673678 -0.038185642198404611 0.1121852036181919 -0.051070473227341623 0.093234924477091918 0.021165668463589807 -0.0056199152829619885 -0.030613959355907897 0.10853918528833273 -0.060849621198670371 -0.054482211733027891 -0.060611308465211206 -0.047587387163385488 0.0057141226160966965 0.04711516854039012 0.058634003569850351 0.034321692877158298 -0.022857028117910558 -0.0010349255428495879 -0.0003446781290273673 -0.064350564871077418 0.10267346596775838 -0.034550123836126052 0.050666759147540534 -0.028423667036049788 0.067850593813842938
leaf_weight=7793.360890313983 32488.92832519114 881.96346394717693 848.03986899554729 5614.8930584788322 4376.3262849599123 3694.8868105709553 165.34174725413322 4272.2841069847345 485.09764984250069 2089.5122365355492 2704.0631264746189 9926.5093212425709 302.98829165101051 4486.7715972810984 4378.8840443938971 2684.4120980799198 8544.7905892282724 1251.2747229039669 14772.657803922892 3251.8356809169054 4984.5180769860744 2211.4598809033632 3092.798096716404 5505.4548793882132 389.62899480760098 392.38481545448303 466.40340988337994 1133.4297026097775 519.33012293279171 1139.5980577766895
leaf_count=36373 170541 3650 3792 25895 21304 17276 756 20953 1984 9660 13038 47094 1239 23514 22529 15036 45218 5127 79578 16606 22541 10244 12652 25757 1712 1590 2068 4654 2366 6445
internal_value=6.04613e-05 0.00604465 0.010258 0.0180571 -0.0119209 -0.0040617 0.00368768 -0.0203089 -0.0125951 0.0303879 0.0328847 -0.0156966 0.013382 -0.0356732 -0.0280698 -0.0170315 -0.0353188 -0.0407791 0.0348804 0.0300477 0.0176183 -0.00146978 -0.0235873 0.00293632 0.0333032 0.0237327 0.0409596 0.0258233 0.0273255 0.0281865
internal_weight=134850 115506 104828 83518.8 24341.4 19965.1 16270.2 21309.6 17037.3 59177.4 54876.4 16552.2 3532.88 19343.4 14856.7 10477.8 10678 9796.07 52172.3 37399.7 10655.3 4300.97 13019.3 5670.8 2684.84 2381.85 1992.22 1599.83 34147.9 33628.5
internal_count=671192 573740 519745 422007 113529 92225 74949 97738 76785 308478 288574 74801 15055 97452 73938 51409 53995 50345 275536 195958 49054 19904 59746 26513 11263 10024 8312 6722 179352 176986
is_linear=0
shrinkage=0.05


Tree=19
num_leaves=31
num_cat=0
split_feature=7 0 29 0 30 0 0 29 31 30 0 0 0 0 0 7 1 31 30 0 1 1 1 9 1 9 6 1 8 0
split_gain=10605 6148.88 10138.9 6076.72 5434.47 6921.95 4602.29 3808.6 3301.6 3520.3 4975.68 4431.72 3018.25 2623.2 2318.49 2194.01 2016.23 2012.45 3198.4 9150.85 1429.22 1218.66 1448.69 1204.46 1089.7 1241.29 1084.15 1058.03 1052.47 1033.43
threshold=0.018553633260122989 6.9935861997635484 1.0000000180025095e-35 1.0000746406245169 1.0000000180025095e-35 2.0000063630605562 1.9884465130194606 1.0000000180025095e-35 1.0000000180025095e-35 1.0000000180025095e-35 1.0000746406245169 11.999879362341661 6.0001082346304884 2.0000063630605562 1.9884465130194606 0.0086479721960284524 24.00010047116373 1.0000000180025095e-35 1.0000000180025095e-35 11.999879362341661 26.992348022901847 22.962800747324366 8.0000276662015217 80.500000000000014 25.000096342269234 91.500000000000014 305.50663813593775 18.000111104369118 99908.500000000015 9.0000484039661206
decision_type=2 2 2 2 2 2 2 2 2 2 2 2 2 2 2 2 2 2 2 2 2 2 2 2 2 2 2 2 2 2
left_child=1 2 3 16 5 6 -5 8 9 10 -2 13 28 14 -12 -3 -1 18 19 -17 -18 22 -11 -9 -21 -26 -19 -13 -6 -10
right_child=7 15 -4 4 12 -7 -8 23 29 21 11 27 -14 -15 -16 17 20 26 -20 24 -22 -23 -24 -25 25 -27 -28 -29 -30 -31
leaf_value=-0.055858260314006591 -0.016423918742426873 -0.053351747303913594 -0.034481377316559751 0.064196996316044141 -0.046015891668906517 0.064491291105313195 -0.012888081341591862 -0.021572095491343056 -0.047828057143821052 -0.028105736697360141 0.063981533464110604 -0.054473832712008854 0.066991094556288475 0.063262246863146882 0.008941969199605727 0.063798410132900038 0.042684237063634313 0.017622817528489845 -0.034845240569509543 -0.058065620421126091 -0.044535823328302977 -0.032549702829024883 0.022045110631209407 0.017279264304088979 -0.031367489884506293 0.086516090713141383 -0.05363215600742554 0.012037410102380087 -0.0040895133225776811 0.0015174089887557592
leaf_weight=3553.1076244860888 3872.7993344962597 7350.6210837960243 15337.446332275867 2610.1283250898123 3337.6615114063025 10867.853169754148 7500.4409649819136 7268.7769536525011 1728.2909245342016 1847.5046444833279 2960.9290814697742 1170.9667906016111 989.25490412116051 15225.466148912907 5408.0308468341827 3968.6813834309578 1161.5079645067453 592.19672837853432 8188.1620071232319 3014.8513064235449 788.55964435636997 1989.5304526239634 6528.2062078714371 2749.4841770529747 875.86339268088341 299.72697266936302 5415.7498245835304 1221.8282113820314 2713.9629122316837 2748.2006113678217
leaf_count=16459 15965 40086 76548 15273 16031 63507 31144 32256 8380 8280 17381 4927 5331 92330 22587 23486 4942 2721 40919 14195 3665 8957 29578 11463 3851 1243 30967 4995 11798 11927
internal_value=5.5093e-05 -0.0117153 -0.00080849 0.0145978 0.0240322 0.0367891 0.00701208 0.0169547 0.0231994 0.0277325 0.0364472 0.0443264 -0.0139774 0.0509019 0.0284149 -0.0296546 -0.0334373 -0.0218627 -0.0127681 0.00938752 0.00741458 0.00262714 0.0109829 -0.0109094 -0.0421439 -0.00131205 -0.0466086 -0.0205113 -0.0272132 -0.017534
internal_weight=133286 78565.8 48859.9 33522.5 28019.3 20978.4 10110.6 54720 44701.8 40225.3 29860 25987.2 7040.88 23594.4 8368.96 29705.9 5503.18 22355.2 16347.3 8159.12 1950.07 10365.2 8375.71 10018.3 4190.44 1175.59 6007.95 2392.8 6051.62 4476.49
internal_count=671192 402166 244698 168150 143084 109924 46417 269026 225307 205000 158185 142220 33160 132298 39968 157468 25066 117382 83694 42775 8607 46815 37858 43719 19289 5094 33688 9922 27829 20307
is_linear=0
shrinkage=0.05


Tree=20
num_leaves=31
num_cat=0
split_feature=9 7 7 31 29 30 0 0 3 2 29 31 0 30 0 0 29 30 0 0 0 0 0 0 0 10 0 2 1 6
split_gain=10061.1 4389.99 4038 3108.07 3730.76 5067.24 4761.19 6843.22 2436.77 2665.8 2085.6 1973.74 2352.18 3250.15 1791.14 2888.22 1698.14 3512.8 6448.66 1413.1 1845.69 1306.77 3205.63 1956.7 1436.73 1149.47 1122.71 1060.22 986.632 970.242
threshold=50.500000000000007 0.038336000581793504 0.018553633260122989 1.0000000180025095e-35 1.0000000180025095e-35 1.0000000180025095e-35 11.999879362341661 2.0000063630605562 1.0000000180025095e-35 4.5000000000000009 1.0000000180025095e-35 1.0000000180025095e-35 1.0000746406245169 1.0000000180025095e-35 7.9839283325929111 7.0001480689942754 1.0000000180025095e-35 1.0000000180025095e-35 2.0000063630605562 11.999879362341661 2.0000063630605562 7.9839283325929111 7.0001480689942754 6.9935861997635484 6.0001082346304884 50.500000000000007 1.9884465130194606 5.5000000000000009 25.000096342269234 132.90281962141276
decision_type=2 2 2 2 2 2 2 2 2 2 2 2 2 2 2 2 2 2 2 2 2 2 2 2 2 2 2 2 2 2
left_child=2 3 8 4 5 6 7 25 9 14 11 12 -4 19 15 16 17 18 -1 20 26 22 23 24 -7 -2 -14 -3 -8 -5
right_child=1 27 10 29 -6 21 28 -9 -10 -11 -12 -13 13 -15 -16 -17 -18 -19 -20 -21 -22 -23 -24 -25 -26 -27 -28 -29 -30 -31
leaf_value=-0.022147806209598109 -0.01394454957617018 0.034819024519532248 -0.038943595079465661 0.0352881980629468 -0.02067340506635414 -0.0070140953255588964 -0.050951300040933428 0.062800666592239748 -0.047385522585752703 0.076559384181047949 -0.027687575952825658 -0.042480102381550269 0.063170077159044033 -0.015042108786437436 -0.037887300670961639 0.088498877151253735 -0.036597816722952974 -0.038406644549239456 0.064823194594249706 -0.015141874190171579 0.062699022503056284 -0.045985522165378885 0.10249927226099152 -0.049560468763267723 0.066212949421035713 0.020482126977775565 0.0001884423993401575 -0.010916798628791994 0.013969006439584295 -0.04394467123051421
leaf_weight=5150.9901338964701 4130.3069992363453 20181.672919511795 1761.8645815104246 429.6079299300909 8622.3285117894411 3915.1990402787924 2029.5687115341425 11514.843858510256 8745.0366501510143 735.40597778558731 4543.5238853096962 1610.7437910288572 958.64014773070812 4145.3629433810711 9416.0225376188755 696.36306734383106 6299.7945916503668 5075.8165035694838 3635.8015613108873 1133.745676651597 5383.9153974801302 2374.9469558894634 652.08752918243408 2448.8647198677063 808.09999458491802 5871.3516147881746 2701.9439233988523 1352.0290045291185 822.3781495988369 3839.4397738575935
leaf_count=23600 18722 102244 7414 1797 41712 16926 9543 71758 45962 3947 20727 7751 5824 18638 51606 3534 32065 26075 21113 4746 33530 12059 2853 12436 4491 27745 11101 6161 3517 21842
internal_value=8.76413e-05 0.0132234 -0.0145308 0.00472763 0.00875045 0.0160897 0.0284746 0.0365209 -0.024075 -0.0175014 0.00253032 0.0102888 0.0155729 0.0222787 -0.0197862 -0.011615 -0.0150727 -0.00529077 0.0138391 0.0374785 0.0440746 -0.0135007 -0.00364038 -0.0132905 0.00551418 0.00626521 0.0166822 0.0319474 -0.0322311 -0.0359712
internal_weight=130988 68992.7 61995 47459 43190 34567.6 24368.4 21516.5 39755.2 31010.2 22239.7 17696.2 16085.5 14323.6 30274.8 20858.8 20162.4 13862.6 8786.79 10178.2 9044.5 10199.2 7824.25 7172.16 4723.3 10001.7 3660.58 21533.7 2851.95 4269.05
internal_count=671439 353806 317633 245401 221762 180050 131285 118225 207902 161940 109731 89004 81253 73839 157993 106387 102853 70788 44713 55201 50455 48765 36706 33853 21417 46467 16925 108405 13060 23639
is_linear=0
shrinkage=0.05


Tree=21
num_leaves=31
num_cat=0
split_feature=7 31 29 30 0 0 0 0 0 0 0 0 0 3 0 0 0 0 1 1 0 0 8 0 1 3 1 9 10 10
split_gain=9374.13 6366.91 7769.7 9921.26 10324.9 15917.8 3434.56 5246.86 2527.52 6378.83 3201.77 4467.97 2476.32 1877.64 1740.15 7755.48 3472.27 5139.94 4852.46 1590.37 1437.61 3306.84 1388.77 1093.13 1080.89 1056.52 1040.97 926.219 910.489 1204.51
threshold=0.0086479721960284524 1.0000000180025095e-35 1.0000000180025095e-35 1.0000000180025095e-35 11.999879362341661 2.0000063630605562 1.0000746406245169 1.9884465130194606 7.9839283325929111 7.0001480689942754 6.9935861997635484 6.0001082346304884 3.9845611652909478 1.0000000180025095e-35 4.9999030950008461 4.0000184706345712 3.9845611652909478 3.0000154969513226 8.9999861263467746 25.000096342269234 9.0000484039661206 10.984017413865251 35399.000000000007 3.0000154969513226 22.000020106276391 1.0000000180025095e-35 28.848974397234436 55.500000000000007 50.500000000000007 60.500000000000007
decision_type=2 2 2 2 2 2 2 2 2 2 2 2 2 2 2 2 2 2 2 2 2 2 2 2 2 2 2 2 2 2
left_child=12 2 3 4 5 6 -2 -8 9 10 11 25 23 14 15 16 17 18 -4 -6 -3 -22 -9 28 -16 -5 -21 -24 -1 -30
right_child=1 20 13 8 19 -7 7 22 -10 -11 -12 -13 -14 -15 24 -17 -18 -19 -20 26 21 -23 27 -25 -26 -27 -28 -29 29 -31
leaf_value=-0.034070566213779761 -0.021941210751578535 -0.055015761754454273 0.039833838334679544 -0.004143759609889849 -0.047162142732595731 0.061973099112522127 0.06260057023814429 0.020294978529641031 -0.040043527645181078 0.088169438139622344 -0.041185174430947186 0.066793754516088946 -0.04699020478573962 -0.04826182107166474 -0.054129071515546349 0.10776974214436474 -0.051645339283208261 0.10043838303518782 -0.054271542558813446 0.03297695797604501 0.059159479268672481 -0.034698477110140118 -0.039084690453500534 0.076778193171172696 0.0011413582077094209 -0.05227318396119747 -0.04970734211794841 0.00049177780212719083 0.035431856510879864 -0.023816082879686899
leaf_weight=2939.0133508294821 7733.3239182084799 4101.9294355660677 2412.9710330814123 6899.1981794983149 4631.9158542901278 26634.285683199763 4747.2110340595245 4516.3841630667448 5586.7096956968307 1784.9516930282116 5809.2454280853271 2292.4447543919086 11616.985365271568 4089.2723659425974 3020.9347423315048 1448.6042288839817 4109.0702833533287 1200.8814022392035 3168.7650584876537 1265.6773899495602 1161.5985270142555 4885.0637440830469 2573.5081067532301 352.86518354713917 1250.8386195898056 1365.9938138872385 544.3769042044878 3474.0177333205938 1607.1948022246361 1839.8369332402945
leaf_count=14310 33642 23132 10077 29556 21544 171697 29618 19237 27694 8521 28790 12585 64992 20987 14544 6041 19993 4885 15216 5241 4880 26038 10588 1732 5944 6588 2474 14347 7770 8776
internal_value=9.00144e-05 0.00557691 0.00938609 0.0164622 0.0279241 0.0356469 0.00521962 0.018938 -0.0106351 -0.00158381 -0.0113722 0.00503214 -0.0330029 -0.0179113 -0.0104402 -0.000918934 -0.0153746 0.00659903 -0.01359 -0.031632 -0.0321676 -0.0166678 -0.000683119 -0.00889065 -0.0379451 -0.0120981 0.00810951 -0.0163499 -0.0136243 0.00380855
internal_weight=129065 110709 100561 79859.2 56120.7 49678.7 23044.4 15311.1 23738.5 18151.8 16366.9 10557.6 18355.9 20701.3 16612.1 12340.3 10891.7 6782.62 5581.74 6441.97 10148.6 6046.66 10563.9 6738.91 4271.77 8265.19 1810.05 6047.53 6386.05 3447.03
internal_count=671439 573859 519809 422122 308388 279129 107432 73790 113734 86040 77519 48729 97580 97687 76700 56212 50171 30178 25293 29259 54050 30918 44172 32588 20488 36144 7715 24935 30856 16546
is_linear=0
shrinkage=0.05


Tree=22
num_leaves=31
num_cat=0
split_feature=7 31 29 30 0 0 0 0 0 0 0 0 0 3 2 2 1 1 0 0 0 0 1 0 0 2 1 2 1 0
split_gain=8617.16 5867.07 7164.75 9197.27 9564.69 15270.7 3130.85 4979.44 2325.29 2324.28 5874.89 2945.03 4169.64 1743.24 1891.51 1528.28 1870.95 1508.09 1443.45 6823.33 3013.35 4798.37 4035.66 1366.79 3006.22 1166.89 1161.14 1080.41 1034.54 1010.25
threshold=0.0086479721960284524 1.0000000180025095e-35 1.0000000180025095e-35 1.0000000180025095e-35 11.999879362341661 2.0000063630605562 1.0000746406245169 1.9884465130194606 3.9845611652909478 7.9839283325929111 7.0001480689942754 6.9935861997635484 6.0001082346304884 1.0000000180025095e-35 4.5000000000000009 3.5000000000000004 20.000177288426944 18.000111104369118 4.9999030950008461 4.0000184706345712 3.9845611652909478 3.0000154969513226 8.9999861263467746 9.0000484039661206 10.984017413865251 5.5000000000000009 23.999988151592234 2.5000000000000004 22.000020106276391 3.0000154969513226
decision_type=2 2 2 2 2 2 2 2 2 2 2 2 2 2 2 2 2 2 2 2 2 2 2 2 2 2 2 2 2 2
left_child=8 2 3 4 5 6 -2 -8 29 10 11 12 27 14 18 16 -9 -6 19 20 21 22 -4 -3 -25 -17 -18 -5 -20 -1
right_child=1 23 13 9 17 -7 7 15 -10 -11 -12 -13 -14 -15 -16 25 26 -19 28 -21 -22 -23 -24 24 -26 -27 -28 -29 -30 -31
leaf_value=-0.013024855733093074 -0.02091150150815399 -0.053843382709923941 0.03431734061159452 0.0041167498464463187 -0.05522104764759226 0.061255483154783519 0.061837192135427467 -0.045438027752133611 -0.045661115401655829 -0.038698065261174482 0.085524609471956892 -0.039812786888941173 0.065741623102874777 -0.046848006709099603 0.088675298272086256 0.030067113807034043 0.083843651743506095 -0.0065229575569098934 -0.054522870608258979 0.10439667547807802 -0.051620120735537726 0.096499858441466857 -0.053458473984025645 0.056014027871321273 -0.03349346828866194 -0.025794976960116789 -0.0044548695054732719 -0.03249753559535571 8.1345623901569579e-06 0.075050664712934423
leaf_weight=6347.4274569749832 7709.0472366064787 3984.6739279180765 2272.9051271378994 4709.9526611566544 3125.2970402091742 25624.568877607584 4570.0132814645767 3021.1753879636526 11363.876811206341 5494.2848470211029 1749.0517510324717 5711.539004355669 2214.6488839536905 4004.230593085289 471.20872020721436 4246.6289778649807 486.04014137387276 3235.8305114209652 2921.8888947069645 1291.8672154992819 3985.5225554704666 1145.0663654357195 3089.4142209887505 1165.3786822110415 4809.7223952710629 1198.7176225185394 1591.3110213875771 3520.946184322238 1238.3992727100849 343.18374541401863
leaf_count=30856 33642 23132 9466 20071 14897 171697 29618 12506 64992 27694 8521 28790 12585 20987 1968 18084 2060 14362 14380 5371 19808 4659 15156 4880 26038 4930 6592 16073 5892 1732
internal_value=9.3442e-05 0.00541157 0.00910482 0.0159909 0.0271945 0.0347631 0.00501855 0.0182445 -0.0318926 -0.0102503 -0.00152144 -0.0109444 0.00484055 -0.0172684 -0.0100533 -0.000649758 -0.0203223 -0.0304489 -0.012971 -0.00403258 -0.0173822 0.00358722 -0.0162533 -0.0311619 -0.016036 0.0177698 0.0162044 -0.0115458 -0.0382905 -0.00850717
internal_weight=126644 108589 98629.6 78209.1 54808.6 48447.5 22822.9 15113.9 18054.5 23400.4 17906.1 16157.1 10445.5 20420.5 16416.3 10543.9 5098.53 6361.13 15945.1 11784.8 10492.9 6507.39 5362.32 9959.78 5975.1 5445.35 2077.35 8230.9 4160.29 6690.61
internal_count=671439 573859 519809 422122 308388 279129 107432 73790 97580 113734 86040 77519 48729 97687 76700 44172 21158 29259 74732 54460 49089 29281 24622 54050 30918 23014 8652 36144 20272 32588
is_linear=0
shrinkage=0.05


Tree=23
num_leaves=31
num_cat=0
split_feature=9 7 31 29 30 0 0 0 0 31 29 30 0 0 7 0 0 0 0 10 1 1 2 10 1 9 2 1 7 1
split_gain=8421.15 3625.43 3420.64 3915.38 6757.89 5905.73 8337.14 6160.81 2989.3 2477.37 2936.61 4025.03 3784.43 6105.94 1296.39 1068.73 2491.88 1624.32 1157.72 996.567 921.452 1001.02 882.839 870.495 829.327 844.404 789.429 847.388 781.173 750.606
threshold=50.500000000000007 0.038336000581793504 1.0000000180025095e-35 1.0000000180025095e-35 1.0000000180025095e-35 1.0000746406245169 11.999879362341661 2.0000063630605562 1.9884465130194606 1.0000000180025095e-35 1.0000000180025095e-35 1.0000000180025095e-35 11.999879362341661 2.0000063630605562 0.013662615350271337 7.9839283325929111 7.0001480689942754 6.9935861997635484 6.0001082346304884 50.500000000000007 25.999876781079159 24.00010047116373 5.5000000000000009 50.500000000000007 25.000096342269234 91.500000000000014 3.5000000000000004 20.000177288426944 0.029273150906151433 5.9815101229973537
decision_type=2 2 2 2 2 2 2 2 2 2 2 2 2 2 2 2 2 2 2 2 2 2 2 2 2 2 2 2 2 2
left_child=2 9 3 4 5 -1 7 8 -7 10 11 12 13 19 -6 16 17 18 -13 -2 21 23 -3 -10 -14 -26 27 -25 -8 -12
right_child=1 22 -4 -5 14 6 28 -9 20 -11 29 15 24 -15 -16 -17 -18 -19 -20 -21 -22 -23 -24 26 25 -27 -28 -29 -30 -31
leaf_value=-0.040791193493350537 -0.013245979279308137 0.032563818006528959 -0.048778666923320758 -0.034325318185633023 -0.059414818613159837 0.062235527157139259 -0.05462709935736694 0.062341800491844956 -0.035778252696124439 -0.033029746550885024 0.0093033173173918422 -0.0053257942886995148 -0.046716583589007064 0.060840214615096734 -0.022523453617312728 -0.042271407540832029 0.092027655301423705 -0.045916149724035821 0.0635097367081284 0.019116252896350633 -0.079163322598588839 0.057052994938809366 -0.0097762142080220615 -0.052737258153170666 -0.027223781830050715 0.076737613543927122 0.024127722821042998 0.04577266464535288 -0.0029897136965919236 -0.026562045999029622
leaf_weight=4378.4667023867369 4065.8748036026955 19208.296640858054 6193.086664378643 12196.378872781992 3098.8043010234833 1758.531123071909 3089.4592603296041 10402.213435679674 2325.9224997907877 4008.2932467013597 1888.8088687807322 3869.2622746378183 1918.1261194497347 10286.68564017117 10285.678225070238 2238.4253787696362 632.93166461586952 2302.0100717246532 725.3317032456398 5733.311522603035 464.11146174371243 569.09659001231194 1315.4910945594311 868.55279076099396 500.60645836591721 320.28327918052673 1946.6808824986219 291.59460501372814 960.00533966720104 6408.142619535327
leaf_count=20230 18722 102244 37151 63446 18611 11341 15925 68526 9719 23639 8627 16926 9543 71758 51484 12059 2853 12436 4491 27745 1889 2307 6161 3610 2208 1309 8152 1214 4028 33085
internal_value=9.74751e-05 0.012441 -0.0136295 -0.00949383 -0.00200469 0.0123719 0.0226369 0.0367729 0.00443367 0.00448302 0.00816028 0.0149209 0.0264154 0.0339337 -0.0310646 -0.0119385 -0.00292096 -0.0116348 0.00554102 0.00568853 -0.0112866 -0.00603778 0.02985 -0.0126467 -0.028718 0.0133384 0.00467066 -0.0279775 -0.0423854 -0.0183973
internal_weight=124250 65421.9 58828.6 52635.5 40439.1 27054.6 22676.2 18626.7 8224.49 44898.1 40889.8 32592.8 22824.9 20085.9 13384.5 9767.96 7529.54 6896.6 4594.59 9799.19 6465.96 6001.85 20523.8 5432.75 2739.02 820.89 3106.83 1160.15 4049.46 8296.95
internal_count=671439 353806 317633 280482 217036 146941 126711 106758 38232 245401 221762 180050 131285 118225 70095 48765 36706 33853 21417 46467 26891 25002 108405 22695 13060 3517 12976 4824 19953 41712
is_linear=0
shrinkage=0.05


Tree=24
num_leaves=31
num_cat=0
split_feature=9 2 31 30 7 0 0 0 0 0 0 0 0 0 0 31 1 10 7 1 1 0 0 22 10 7 6 0 0 0
split_gain=7735.56 3324.12 3193.85 3052.39 2803.9 2698.31 9750.3 2646.3 4749.48 2997.06 3943.51 2088.3 3290.43 2099.2 2799.94 1911.72 2161.65 1355.72 1263.24 1244.67 1196.86 1190.69 1164.73 900.505 816.656 740.699 719.108 698.113 1186.41 707.936
threshold=50.500000000000007 5.5000000000000009 1.0000000180025095e-35 1.0000000180025095e-35 0.038336000581793504 11.999879362341661 5.0000355452233078 4.9999030950008461 4.0000184706345712 3.9845611652909478 3.0000154969513226 1.0000746406245169 2.9999939464349277 2.0000063630605562 1.9884465130194606 1.0000000180025095e-35 27.999814027457059 50.500000000000007 0.013662615350271337 25.000096342269234 4.9999731916847017 11.999879362341661 4.9999030950008461 1.0000000180025095e-35 50.500000000000007 0.029273150906151433 132.90281962141276 11.999879362341661 8.0000654662267507 7.9839283325929111
decision_type=2 2 2 2 2 2 2 2 2 2 2 2 2 2 2 2 2 2 2 2 2 2 2 2 2 2 2 2 2 2
left_child=2 4 3 5 15 6 7 8 9 10 11 -1 13 14 -13 16 17 19 -5 27 -14 -19 -3 24 -16 -7 -17 28 29 -2
right_child=1 22 -4 18 -6 25 -8 -9 -10 -11 -12 12 20 -15 23 26 -18 21 -20 -21 -22 -23 -24 -25 -26 -27 -28 -29 -30 -31
leaf_value=-0.039212249666588567 0.00089587434989255943 -0.0030779219986461701 -0.047648164631351783 -0.058491576148215207 0.031224046838257809 -0.053289681892346376 0.061971644715411001 -0.050010643538827559 0.077630835752556873 -0.053598161077625432 0.073203902196979392 0.06150478219047955 0.012037549693472488 0.060839704667214028 -0.043334500453516368 0.033128812326580701 -0.035462757853262632 0.026493209672938139 -0.021553943731182738 0.040008918504357505 -0.051940116902471446 -0.035027750322114935 -0.049580548620410947 0.025633863865660314 -0.0029094160668444087 -0.0028417899437149312 -0.036238070440630404 -0.042864330538023132 0.06108439030115901 -0.046844459914723906
leaf_weight=4328.3283001929522 11375.877720758319 2781.6671462506056 6027.2663260400295 2993.0177565068007 19035.359236508608 3010.6593722105026 5732.7694020420313 3526.6356513947248 1673.1084146052599 3318.0301671177149 1592.0408849567175 1692.1350230425596 949.30209103226662 2054.9673409312963 2200.8234859406948 426.30311672389507 2317.9224560260773 17474.641843944788 10212.816317737103 2067.272662371397 3179.0460091084242 823.55739691853523 2609.8710577487946 1343.523610278964 2889.724653929472 959.49087874591351 3023.2605560272932 953.26308155059814 784.11934344470501 833.42963302135468
leaf_count=20230 61714 13751 37151 18611 102244 15925 39011 19508 10009 18608 9506 11341 4030 14228 9263 1773 12223 98475 51484 11532 17072 4053 14309 5633 11995 4028 18789 4820 5550 4573
internal_value=9.86943e-05 0.0119953 -0.013205 -0.0091862 0.0154231 -0.00206325 0.00243125 -0.00944211 -0.00376945 -0.00955304 -0.00232893 -0.00878092 0.00042391 0.0156916 0.00427445 0.00791857 0.0112696 0.0144266 -0.0299256 0.00380266 -0.0372286 0.0237243 -0.0255884 -0.0107769 -0.0203866 -0.0410976 -0.0276656 -0.00156408 0.00146591 -0.00236297
internal_weight=122190 64506.5 57683.7 51656.4 59115 38450.6 34480.4 28747.7 25221 23547.9 20229.9 18637.9 14309.5 10181.2 8126.21 40079.6 36630.1 34312.2 13205.8 16014 4128.35 18298.2 5391.54 6434.07 5090.55 3970.15 3449.56 13946.7 12993.4 12209.3
internal_count=671439 353806 317633 280482 325746 210387 190434 151423 131915 121906 103298 93792 73562 52460 38232 223502 202940 190717 70095 88189 21102 102528 28060 26891 21258 19953 20562 76657 71837 66287
is_linear=0
shrinkage=0.05


Tree=25
num_leaves=31
num_cat=0
split_feature=9 2 7 1 7 3 2 29 0 0 30 0 0 29 0 0 0 0 0 0 29 0 30 0 0 0 0 1 2 1
split_gain=7136.55 3085.19 2910.79 2596.55 2289 1978.48 2186.49 1583.15 2843.22 2114.7 2233.05 1364.41 2276.3 1338.6 1222.42 1664.9 1172.21 1114.7 2747.45 1113.29 1859.05 2101.01 1789.5 2659.23 1203.36 1110.16 1049.88 986.386 948.659 1067.8
threshold=50.500000000000007 5.5000000000000009 0.018553633260122989 27.999814027457059 0.038336000581793504 1.0000000180025095e-35 4.5000000000000009 1.0000000180025095e-35 6.9935861997635484 2.0000063630605562 1.0000000180025095e-35 7.9839283325929111 7.0001480689942754 1.0000000180025095e-35 1.0000746406245169 5.9999953649961535 2.0000063630605562 7.0001480689942754 7.9839283325929111 6.9935861997635484 1.0000000180025095e-35 1.0000746406245169 1.0000000180025095e-35 2.0000063630605562 6.0001082346304884 1.9884465130194606 4.9999030950008461 26.000094408137866 3.5000000000000004 26.000094408137866
decision_type=2 2 2 2 2 2 2 2 2 2 2 2 2 2 2 2 2 2 2 2 2 2 2 2 2 2 2 2 2 2
left_child=2 3 5 4 7 6 11 8 9 28 -11 12 19 14 -4 16 -16 -10 -19 20 21 -1 23 25 -24 -23 -3 -20 29 -2
right_child=1 26 13 -5 -6 -7 -8 -9 17 10 -12 -13 -14 -15 15 -17 -18 18 27 -21 -22 22 24 -25 -26 -27 -28 -29 -30 -31
leaf_value=-0.044858309165558455 -0.017044074292937538 -0.0036040371651326441 -0.03112559567505432 -0.024101089988583346 0.032321516962836881 -0.043562285916717777 0.075149449894489309 -0.011469285218646347 -0.041435714507156204 0.059836117234427222 0.012764963542970307 -0.034266909522175953 0.083622352821931589 -0.022749867824171502 0.014536251510041565 -0.00087160425414767751 0.059188903746203531 0.074053771243862102 -0.012293759449009685 -0.046283069102801937 -0.031386342351175704 0.062125071958335158 -0.036022404317664708 0.061624459652121079 0.065660506093136659 -0.017473999169202861 -0.047982393502484677 0.054656911638484885 0.02847674620631398 0.045589823975739817
leaf_weight=1821.7137819081545 3947.0599478036165 2770.6558495908976 1720.5274391770363 4007.1283020526171 17802.110193878412 7920.1836660653353 653.05940212309361 6713.2260280549526 1719.3457052260637 6622.0791232436895 4067.015519618988 8360.3230424821377 627.28777958452702 4274.4446032643318 3448.289248496294 8433.0111437886953 2561.6074674129486 1171.093123011291 7908.2740208506584 2238.6307647973299 5793.3082596063614 527.39602546393871 2106.4285486936569 3065.1136775910854 337.59692203998566 2585.1790012717247 2567.8946610987186 591.27766335010529 3347.9175262004137 822.22125604748726
leaf_count=9186 18710 13713 7444 20523 97375 45892 3954 33242 9300 49086 19021 51412 3491 20795 16873 45128 19617 7011 47891 13182 32255 3430 11041 21092 1907 10958 14375 3523 16398 3797
internal_value=1.76844e-05 0.0114413 -0.0129399 0.01475 0.0175954 -0.0214886 -0.0152705 0.0104928 0.0153754 0.0273155 0.0419264 -0.0174206 -0.0100478 0.00213321 0.00871357 0.0134595 0.0335686 -0.0043392 0.00225619 -0.0132282 -0.00867074 0.00393034 0.0142391 0.0285668 -0.0219768 -0.0039867 -0.0249505 -0.00763629 0.00807529 -0.00624603
internal_weight=120531 64057.3 56474.1 58718.7 54711.6 36036.2 28116 36909.5 30196.3 18806.3 10689.1 27463 19102.7 20437.9 16163.4 14442.9 6009.9 11390 9670.64 18475.4 16236.7 10443.4 8621.71 6177.69 2444.03 3112.58 5338.55 8499.55 8117.2 4769.28
internal_count=671622 353965 317657 325877 305354 207800 161908 207979 174737 107012 68107 157954 106542 109857 89062 81618 36490 67725 58425 103051 89869 57614 48428 35480 12948 14388 28088 51414 38905 22507
is_linear=0
shrinkage=0.05


Tree=26
num_leaves=31
num_cat=0
split_feature=7 3 1 31 29 30 0 0 0 1 0 0 0 0 0 1 0 0 0 0 0 1 0 0 7 1 1 6 7 1
split_gain=6676.68 4836.5 3249.66 3413.87 3246.8 4106.73 5836.09 8775.83 2206.62 2004.27 1941.65 1684.73 5406.71 2638.67 3664.12 3534.35 1641 3095.64 1942.81 2308.01 1458.32 1433.66 1701.56 3006.12 1268.83 1247.34 1085.68 1062.33 1046.71 976.4
threshold=0.0086479721960284524 1.0000000180025095e-35 27.999814027457059 1.0000000180025095e-35 1.0000000180025095e-35 1.0000000180025095e-35 11.999879362341661 2.0000063630605562 2.9999939464349277 25.000096342269234 3.9845611652909478 4.9999030950008461 4.0000184706345712 3.9845611652909478 3.0000154969513226 8.9999861263467746 7.9839283325929111 7.0001480689942754 6.9935861997635484 6.0001082346304884 1.0000746406245169 24.00010047116373 1.0000746406245169 1.9884465130194606 0.029273150906151433 22.000020106276391 5.0001915415815272 1.0000000180025095e-35 0.029273150906151433 12.988458393533806
decision_type=2 2 2 2 2 2 2 2 2 2 2 2 2 2 2 2 2 2 2 2 2 2 2 2 2 2 2 2 2 2
left_child=10 2 3 4 5 6 7 21 20 -8 -1 12 13 14 15 -6 17 18 19 26 -3 22 24 -24 -2 -13 -7 -4 -5 -26
right_child=1 8 27 28 11 16 9 -9 -10 -11 -12 25 -14 -15 -16 -17 -18 -19 -20 -21 -22 -23 23 -25 29 -27 -28 -29 -30 -31
leaf_value=-0.0075506674187718701 -0.050936078989019112 -0.032458897582788769 0.040345756083042715 -0.040867823649817649 0.035917760531318961 -0.044904837445733474 -0.038585903059900332 0.059059095561870702 -0.029747712702602288 0.10069834981228465 -0.04259163993501091 -0.050242378715078799 0.096830078580228449 -0.044247846971832913 0.090999523146918448 -0.047522250194995098 -0.028937602248648987 0.076979164920811805 -0.029462300666751123 0.063023097484731519 0.020920820817805476 0.037835578877927309 0.060098901619285119 -0.0061532677488308554 0.033161150112721589 0.018917477289127026 0.0093086991006873475 -0.031244027805114656 0.00060593689687884198 -0.040210526525833255
